{"learner":{"attributes":{"scikit_learn":"{\"_estimator_type\": \"classifier\"}"},"feature_names":[],"feature_types":[],"gradient_booster":{"model":{"cats":{"enc":[],"feature_segments":[],"sorted_idx":[]},"gbtree_model_param":{"num_parallel_tree":"1","num_trees":"200"},"iteration_indptr":[0,1,2,3,4,5,6,7,8,9,10,11,12,13,14,15,16,17,18,19,20,21,22,23,24,25,26,27,28,29,30,31,32,33,34,35,36,37,38,39,40,41,42,43,44,45,46,47,48,49,50,51,52,53,54,55,56,57,58,59,60,61,62,63,64,65,66,67,68,69,70,71,72,73,74,75,76,77,78,79,80,81,82,83,84,85,86,87,88,89,90,91,92,93,94,95,96,97,98,99,100,101,102,103,104,105,106,107,108,109,110,111,112,113,114,115,116,117,118,119,120,121,122,123,124,125,126,127,128,129,130,131,132,133,134,135,136,137,138,139,140,141,142,143,144,145,146,147,148,149,150,151,152,153,154,155,156,157,158,159,160,161,162,163,164,165,166,167,168,169,170,171,172,173,174,175,176,177,178,179,180,181,182,183,184,185,186,187,188,189,190,191,192,193,194,195,196,197,198,199,200],"tree_info":[0,0,0,0,0,0,0,0,0,0,0,0,0,0,0,0,0,0,0,0,0,0,0,0,0,0,0,0,0,0,0,0,0,0,0,0,0,0,0,0,0,0,0,0,0,0,0,0,0,0,0,0,0,0,0,0,0,0,0,0,0,0,0,0,0,0,0,0,0,0,0,0,0,0,0,0,0,0,0,0,0,0,0,0,0,0,0,0,0,0,0,0,0,0,0,0,0,0,0,0,0,0,0,0,0,0,0,0,0,0,0,0,0,0,0,0,0,0,0,0,0,0,0,0,0,0,0,0,0,0,0,0,0,0,0,0,0,0,0,0,0,0,0,0,0,0,0,0,0,0,0,0,0,0,0,0,0,0,0,0,0,0,0,0,0,0,0,0,0,0,0,0,0,0,0,0,0,0,0,0,0,0,0,0,0,0,0,0,0,0,0,0,0,0,0,0,0,0,0,0],"trees":[{"base_weights":[-1.6150031E-3,1.7918241E0,-1.6259264E0,1.8444773E0,-1.3859649E-1,-1.7683958E0,-7.119275E-1,1.8609003E0,-1.3552E-1,-1.8820423E0,-1.4622793E0,1.3911672E-1,-1.1773359E0,1.8770518E0,-1.3540983E-1,-1.379939E-1,-1.7126024E0,1.3852632E-1,-1.6456338E0,-1.6362098E0,-3.4630054E-1,1.8907073E0,-1.345631E-1,-1.7694777E0,1.3486238E-1,-1.1241535E0,-1.8177044E0,-9.299363E-1,-1.8081181E0,1.3718593E-1,-7.562724E-1,1.3330239E-1,-1.345098E-1,-1.288555E-1,-8.560399E-2,-8.9729376E-2,-1.3409962E-2,-1.2979996E-1,-1.0565588E-1,-8.361111E-2,1.2697674E-1,-1.3727716E-1,-1.05997E-1,6.0722895E-2,-7.249476E-2],"categories":[],"categories_nodes":[],"categories_segments":[],"categories_sizes":[],"default_left":[0,0,0,0,0,0,0,0,0,0,0,0,0,0,0,0,0,0,0,0,0,0,0,0,0,0,0,0,0,0,0,0,0,0,0,0,0,0,0,0,0,0,0,0,0],"id":0,"left_children":[1,3,5,7,-1,9,11,13,-1,15,17,-1,19,21,-1,-1,23,-1,25,27,29,31,-1,33,-1,35,37,39,41,-1,43,-1,-1,-1,-1,-1,-1,-1,-1,-1,-1,-1,-1,-1,-1],"loss_changes":[4.419542E4,1.4355781E3,1.0353984E3,4.451328E2,0E0,2.3683398E2,1.3531562E3,4.377129E2,0E0,7.256055E1,1.182529E3,0E0,3.4940845E2,3.694961E2,0E0,0E0,3.635044E2,0E0,1.5722998E2,7.007446E1,3.1134875E2,3.6832617E2,0E0,6.4538086E1,0E0,6.49035E1,1.223584E1,8.762739E1,1.8351807E1,0E0,1.2745839E2,0E0,0E0,0E0,0E0,0E0,0E0,0E0,0E0,0E0,0E0,0E0,0E0,0E0,0E0],"parents":[2147483647,0,0,1,1,2,2,3,3,5,5,6,6,7,7,9,9,10,10,12,12,13,13,16,16,18,18,19,19,20,20,21,21,23,23,25,25,26,26,27,27,28,28,30,30],"right_children":[2,4,6,8,-1,10,12,14,-1,16,18,-1,20,22,-1,-1,24,-1,26,28,30,32,-1,34,-1,36,38,40,42,-1,44,-1,-1,-1,-1,-1,-1,-1,-1,-1,-1,-1,-1,-1,-1],"split_conditions":[3.1992736E-1,1E0,3.5535826E-3,1E0,-1.3859649E-1,2.8565028E-3,9.9658895E-1,1E0,-1.3552E-1,4.711162E-3,9.9558985E-1,1.3911672E-1,2.8565028E-3,1E0,-1.3540983E-1,-1.379939E-1,4.3333163E-3,1.3852632E-1,-8.9027184E-1,-1.0334841E0,9.921494E-1,1E0,-1.345631E-1,3.2709253E-3,1.3486238E-1,5.5835308E-3,5.460945E-3,-1.1689734E0,4.711162E-3,1.3718593E-1,-1.3199086E0,1.3330239E-1,-1.345098E-1,-1.288555E-1,-8.560399E-2,-8.9729376E-2,-1.3409962E-2,-1.2979996E-1,-1.0565588E-1,-8.361111E-2,1.2697674E-1,-1.3727716E-1,-1.05997E-1,6.0722895E-2,-7.249476E-2],"split_indices":[4,29,23,27,0,30,23,25,0,31,30,0,30,19,0,0,28,0,1,1,30,26,0,16,0,14,13,1,31,0,1,0,0,0,0,0,0,0,0,0,0,0,0,0,0],"split_type":[0,0,0,0,0,0,0,0,0,0,0,0,0,0,0,0,0,0,0,0,0,0,0,0,0,0,0,0,0,0,0,0,0,0,0,0,0,0,0,0,0,0,0,0,0],"sum_hessian":[1.516925E4,7.20925E3,7.96E3,7.1105E3,9.875E1,6.88575E3,1.07425E3,7.08025E3,3.025E1,5.01775E3,1.868E3,1.575E2,9.1675E2,7.05075E3,2.95E1,3.279E3,1.73875E3,9.4E1,1.774E3,5.9E2,3.2675E2,7.026E3,2.475E1,1.7125E3,2.625E1,4.42E2,1.332E3,1.1675E2,4.7325E2,4.875E1,2.78E2,7.0015E3,2.45E1,1.51275E3,1.9975E2,3.7775E2,6.425E1,1.18625E3,1.4575E2,1.07E2,9.75E0,3.075E2,1.6575E2,4.05E1,2.375E2],"tree_param":{"num_deleted":"0","num_feature":"32","num_nodes":"45","size_leaf_vector":"1"}},{"base_weights":[-7.466409E-3,-1.3203724E-1,1.8813848E0,1.2524369E0,1.3197726E-1,5.70243E-1,1.2251323E-1,-8.5208364E-2,1.5139481E0,5.381455E-2,1.1540079E-1],"categories":[],"categories_nodes":[],"categories_segments":[],"categories_sizes":[],"default_left":[0,0,0,0,0,0,0,0,0,0,0],"id":1,"left_children":[1,-1,3,5,-1,7,-1,-1,9,-1,-1],"loss_changes":[5.377461E4,0E0,1.6669922E1,1.6246468E1,0E0,4.0483006E1,0E0,0E0,2.81353E-1,0E0,0E0],"parents":[2147483647,0,0,2,2,3,3,5,5,8,8],"right_children":[2,-1,4,6,-1,8,-1,-1,10,-1,-1],"split_conditions":[1.7546539E-1,-1.3203724E-1,6.215557E-1,4.0259836E-3,1.3197726E-1,3.5535826E-3,1.2251323E-1,-8.5208364E-2,-6.082211E-1,5.381455E-2,1.1540079E-1],"split_indices":[0,0,0,24,0,23,0,0,2,0,0],"split_type":[0,0,0,0,0,0,0,0,0,0,0],"sum_hessian":[1.5151173E4,7.595838E3,7.5553354E3,4.9784344E1,7.505551E3,2.1906303E1,2.7878042E1,7.469044E0,1.443726E1,3.2361422E0,1.12011175E1],"tree_param":{"num_deleted":"0","num_feature":"32","num_nodes":"11","size_leaf_vector":"1"}},{"base_weights":[-2.7561968E-3,-1.7769403E0,1.7715691E0,-1.3083683E-1,-1.2401915E-1,1.7731389E0,-9.9748984E-2,1.2582802E0,1.7763023E0,1.21871166E-1,-8.2264787E-1,1.2367088E-1,1.3015698E-1,1.7626434E-4,-1.0486707E-1],"categories":[],"categories_nodes":[],"categories_segments":[],"categories_sizes":[],"default_left":[0,0,0,0,0,0,0,0,0,0,0,0,0,0,0],"id":2,"left_children":[1,3,5,-1,-1,7,-1,9,11,-1,13,-1,-1,-1,-1],"loss_changes":[4.7081605E4,2.9882812E-1,4.0046875E1,0E0,0E0,9.939453E0,0E0,5.0729454E1,2.625E0,0E0,5.5326777E0,0E0,0E0,0E0,0E0],"parents":[2147483647,0,0,1,1,2,2,5,5,7,7,8,8,10,10],"right_children":[2,4,6,-1,-1,8,-1,10,12,-1,14,-1,-1,-1,-1],"split_conditions":[1.7546539E-1,-3.0994747E0,1E0,-1.3083683E-1,-1.2401915E-1,6.215557E-1,-9.9748984E-2,-3.0994747E0,2.8640142E-1,1.21871166E-1,-2.0914818E-1,1.2367088E-1,1.3015698E-1,1.7626434E-4,-1.0486707E-1],"split_indices":[0,4,29,0,0,0,0,4,4,0,2,0,0,0,0],"split_type":[0,0,0,0,0,0,0,0,0,0,0,0,0,0,0],"sum_hessian":[1.4954133E4,7.4773633E3,7.4767695E3,3.8301166E2,7.0943516E3,7.473545E3,3.224786E0,4.8074425E1,7.42547E3,3.915463E1,8.919797E0,6.67807E3,7.4740027E2,4.463384E0,4.456413E0],"tree_param":{"num_deleted":"0","num_feature":"32","num_nodes":"15","size_leaf_vector":"1"}},{"base_weights":[-1.3276841E-3,-1.1801273E-1,1.6817495E0,1.2140702E0,1.6849155E0,1.1592346E-1,-9.454037E-1,1.1742582E-1,1.7493215E0,-3.1561855E-2,-9.616842E-2,1.1449398E0,1.2282992E-1,2.5982982E-2,1.0386971E-1],"categories":[],"categories_nodes":[],"categories_segments":[],"categories_sizes":[],"default_left":[0,0,0,0,0,0,0,0,0,0,0,0,0,0,0],"id":3,"left_children":[1,-1,3,5,7,-1,9,-1,11,-1,-1,13,-1,-1,-1],"loss_changes":[4.1569527E4,0E0,8.8125E0,5.2051537E1,5.410156E-1,0E0,1.4194489E0,0E0,3.6132812E-1,0E0,0E0,1.8906193E0,0E0,0E0,0E0],"parents":[2147483647,0,0,2,2,3,3,4,4,6,6,8,8,11,11],"right_children":[2,-1,4,6,8,-1,10,-1,12,-1,-1,14,-1,-1,-1],"split_conditions":[1.7546539E-1,-1.1801273E-1,6.215557E-1,-3.0994747E0,3.1992736E-1,1.1592346E-1,-2.0914818E-1,1.1742582E-1,7.861784E-1,-3.1561855E-2,-9.616842E-2,7.106911E-1,1.2282992E-1,2.5982982E-2,1.0386971E-1],"split_indices":[0,0,0,4,4,0,2,0,0,0,0,11,0,0,0],"split_type":[0,0,0,0,0,0,0,0,0,0,0,0,0,0,0],"sum_hessian":[1.4659636E4,7.3265713E3,7.3330645E3,5.1895702E1,7.281169E3,4.3272293E1,8.623408E0,6.554705E3,7.264635E2,4.9556794E0,3.6677291E0,8.309973E0,7.181535E2,3.1693728E0,5.1406E0],"tree_param":{"num_deleted":"0","num_feature":"32","num_nodes":"15","size_leaf_vector":"1"}},{"base_weights":[1.1990262E-3,-1.1266586E-1,1.605551E0,1.0908154E0,1.1263352E-1,1.1051886E-1,-9.680312E-1,-8.646772E-3,-9.521382E-2],"categories":[],"categories_nodes":[],"categories_segments":[],"categories_sizes":[],"default_left":[0,0,0,0,0,0,0,0,0],"id":4,"left_children":[1,-1,3,5,-1,-1,7,-1,-1],"loss_changes":[3.700306E4,0E0,1.1166016E1,5.3319233E1,0E0,0E0,3.3083982E0,0E0,0E0],"parents":[2147483647,0,0,2,2,3,3,6,6],"right_children":[2,-1,4,6,-1,-1,8,-1,-1],"split_conditions":[1.7546539E-1,-1.1266586E-1,6.215557E-1,-3.0994747E0,1.1263352E-1,1.1051886E-1,-8.6794263E-1,-8.646772E-3,-9.521382E-2],"split_indices":[0,0,0,4,0,0,1,0,0],"split_type":[0,0,0,0,0,0,0,0,0],"sum_hessian":[1.4317248E4,7.144463E3,7.1727856E3,5.0545025E1,7.1222407E3,4.104818E1,9.496846E0,3.4285834E0,6.0682626E0],"tree_param":{"num_deleted":"0","num_feature":"32","num_nodes":"9","size_leaf_vector":"1"}},{"base_weights":[-3.89955E-3,-1.08140886E-1,1.5402335E0,1.0021019E0,1.0805824E-1,1.2390789E0,-6.947121E-2,7.435581E-1,1.0440397E-1,-5.0882544E-2,6.9804415E-2,-6.4168386E-2,9.097941E-2],"categories":[],"categories_nodes":[],"categories_segments":[],"categories_sizes":[],"default_left":[0,0,0,0,0,0,0,0,0,0,0,0,0],"id":5,"left_children":[1,-1,3,5,-1,7,9,11,-1,-1,-1,-1,-1],"loss_changes":[3.3014594E4,0E0,1.1339844E1,1.2039066E1,0E0,3.718689E0,7.3666925E0,1.5060416E1,0E0,0E0,0E0,0E0,0E0],"parents":[2147483647,0,0,2,2,3,3,5,5,6,6,7,7],"right_children":[2,-1,4,6,-1,8,10,12,-1,-1,-1,-1,-1],"split_conditions":[1.7546539E-1,-1.08140886E-1,6.215557E-1,5.0419226E-2,1.0805824E-1,4.0259836E-3,2.1601042E-3,3.5535826E-3,1.0440397E-1,-5.0882544E-2,6.9804415E-2,-6.4168386E-2,9.097941E-2],"split_indices":[0,0,0,1,0,24,9,23,0,0,0,0,0],"split_type":[0,0,0,0,0,0,0,0,0,0,0,0,0],"sum_hessian":[1.3872809E4,6.943515E3,6.9292935E3,4.6070454E1,6.883223E3,3.7599136E1,8.471315E0,1.4020391E1,2.3578747E1,5.438168E0,3.0331476E0,3.3553853E0,1.0665007E1],"tree_param":{"num_deleted":"0","num_feature":"32","num_nodes":"13","size_leaf_vector":"1"}},{"base_weights":[2.8526913E-3,-1.0422267E-1,1.4842073E0,1.4857334E0,-9.5645696E-2,1.0457153E0,1.04203284E-1,1.02781005E-1,-7.5507325E-1,3.959752E-3,-9.279721E-2],"categories":[],"categories_nodes":[],"categories_segments":[],"categories_sizes":[],"default_left":[0,0,0,0,0,0,0,0,0,0,0],"id":6,"left_children":[1,-1,3,5,-1,7,-1,-1,9,-1,-1],"loss_changes":[2.955606E4,0E0,3.1222656E1,6.9589844E0,0E0,3.6916313E1,0E0,0E0,4.522711E0,0E0,0E0],"parents":[2147483647,0,0,2,2,3,3,5,5,8,8],"right_children":[2,-1,4,6,-1,8,-1,-1,10,-1,-1],"split_conditions":[1.7546539E-1,-1.0422267E-1,1E0,6.215557E-1,-9.5645696E-2,-3.0994747E0,1.04203284E-1,1.02781005E-1,-2.0914818E-1,3.959752E-3,-9.279721E-2],"split_indices":[0,0,29,0,0,4,0,0,2,0,0],"split_type":[0,0,0,0,0,0,0,0,0,0,0],"sum_hessian":[1.3372947E4,6.6630967E3,6.7098506E3,6.7067393E3,3.1116922E0,4.605427E1,6.660685E3,3.7450523E1,8.603749E0,3.923583E0,4.6801662E0],"tree_param":{"num_deleted":"0","num_feature":"32","num_nodes":"11","size_leaf_vector":"1"}},{"base_weights":[-6.638057E-4,-1.008387E-1,1.4361746E0,9.091816E-1,1.0077598E-1,9.903215E-2,-8.428801E-1,-4.7598145E-4,-8.879097E-2],"categories":[],"categories_nodes":[],"categories_segments":[],"categories_sizes":[],"default_left":[0,0,0,0,0,0,0,0,0],"id":7,"left_children":[1,-1,3,5,-1,-1,7,-1,-1],"loss_changes":[2.6675676E4,0E0,1.053418E1,4.1121254E1,0E0,0E0,3.8060074E0,0E0,0E0],"parents":[2147483647,0,0,2,2,3,3,6,6],"right_children":[2,-1,4,6,-1,-1,8,-1,-1],"split_conditions":[1.7546539E-1,-1.008387E-1,6.215557E-1,-3.0994747E0,1.0077598E-1,9.903215E-2,-8.9027184E-1,-4.7598145E-4,-8.879097E-2],"split_indices":[0,0,0,4,0,0,1,0,0],"split_type":[0,0,0,0,0,0,0,0,0],"sum_hessian":[1.2891728E4,6.4390273E3,6.4527007E3,4.4077644E1,6.408623E3,3.435649E1,9.721155E0,3.6217225E0,6.099433E0],"tree_param":{"num_deleted":"0","num_feature":"32","num_nodes":"9","size_leaf_vector":"1"}},{"base_weights":[1.1337221E-3,-9.788093E-2,1.3934067E0,8.249153E-1,9.781499E-2,9.62134E-2,-9.7539645E-1,-8.8830985E-2,-1.4810818E-2],"categories":[],"categories_nodes":[],"categories_segments":[],"categories_sizes":[],"default_left":[0,0,0,0,0,0,0,0,0],"id":8,"left_children":[1,-1,3,5,-1,-1,7,-1,-1],"loss_changes":[2.4140441E4,0E0,1.2794922E1,4.6159286E1,0E0,0E0,2.2386189E0,0E0,0E0],"parents":[2147483647,0,0,2,2,3,3,6,6],"right_children":[2,-1,4,6,-1,-1,8,-1,-1],"split_conditions":[1.7546539E-1,-9.788093E-2,6.215557E-1,-3.0994747E0,9.781499E-2,9.62134E-2,4.711162E-3,-8.8830985E-2,-1.4810818E-2],"split_indices":[0,0,0,4,0,0,31,0,0],"split_type":[0,0,0,0,0,0,0,0,0],"sum_hessian":[1.2387927E4,6.178076E3,6.2098506E3,4.4299583E1,6.165551E3,3.4120514E1,1.017907E1,6.8748784E0,3.3041923E0],"tree_param":{"num_deleted":"0","num_feature":"32","num_nodes":"9","size_leaf_vector":"1"}},{"base_weights":[2.448886E-3,-9.528354E-2,1.3569127E0,8.788511E-1,9.5222056E-2,3.5903293E-1,9.192013E-2,-6.076845E-2,7.617683E-2],"categories":[],"categories_nodes":[],"categories_segments":[],"categories_sizes":[],"default_left":[0,0,0,0,0,0,0,0,0],"id":9,"left_children":[1,-1,3,5,-1,7,-1,-1,-1],"loss_changes":[2.1916121E4,0E0,8.488281E0,9.663406E0,0E0,2.0462244E1,0E0,0E0,0E0],"parents":[2147483647,0,0,2,2,3,3,5,5],"right_children":[2,-1,4,6,-1,8,-1,-1,-1],"split_conditions":[1.7546539E-1,-9.528354E-2,6.215557E-1,4.0259836E-3,9.5222056E-2,3.5535826E-3,9.192013E-2,-6.076845E-2,7.617683E-2],"split_indices":[0,0,0,24,0,23,0,0,0],"split_type":[0,0,0,0,0,0,0,0,0],"sum_hessian":[1.1863766E4,5.9118496E3,5.951916E3,4.3893456E1,5.9080225E3,2.081095E1,2.3082504E1,7.6859975E0,1.3124951E1],"tree_param":{"num_deleted":"0","num_feature":"32","num_nodes":"9","size_leaf_vector":"1"}},{"base_weights":[-1.232395E-3,-9.298126E-2,1.3243431E0,8.277003E-1,9.295177E-2,1.1174817E0,2.0549072E-2,3.1377595E-2,8.4162205E-2,-2.8262556E-1,4.8901185E-2,1.824295E-2,-4.8703946E-2],"categories":[],"categories_nodes":[],"categories_segments":[],"categories_sizes":[],"default_left":[0,0,0,0,0,0,0,0,0,0,0,0,0],"id":10,"left_children":[1,-1,3,5,-1,7,9,-1,-1,11,-1,-1,-1],"loss_changes":[1.9860006E4,0E0,8.829102E0,9.94607E0,0E0,1.2405548E0,2.7214005E0,0E0,0E0,2.24535E0,0E0,0E0,0E0],"parents":[2147483647,0,0,2,2,3,3,5,5,6,6,9,9],"right_children":[2,-1,4,6,-1,8,10,-1,-1,12,-1,-1,-1],"split_conditions":[1.7546539E-1,-9.298126E-2,6.215557E-1,-3.5316345E-1,9.295177E-2,-9.942596E-1,2.1601042E-3,3.1377595E-2,8.4162205E-2,3.0937275E-1,4.8901185E-2,1.824295E-2,-4.8703946E-2],"split_indices":[0,0,0,1,0,2,9,0,0,1,0,0,0],"split_type":[0,0,0,0,0,0,0,0,0,0,0,0,0],"sum_hessian":[1.1287654E4,5.6406436E3,5.647011E3,4.1621395E1,5.6053896E3,3.0343187E1,1.1278209E1,4.1206827E0,2.6222504E1,8.196462E0,3.081747E0,3.700249E0,4.496213E0],"tree_param":{"num_deleted":"0","num_feature":"32","num_nodes":"13","size_leaf_vector":"1"}},{"base_weights":[2.6360499E-3,-9.094527E-2,1.2946807E0,7.918201E-1,9.087351E-2,8.977886E-2,-7.539134E-1,1.1359334E-2,-8.214002E-2],"categories":[],"categories_nodes":[],"categories_segments":[],"categories_sizes":[],"default_left":[0,0,0,0,0,0,0,0,0],"id":11,"left_children":[1,-1,3,5,-1,-1,7,-1,-1],"loss_changes":[1.8049512E4,0E0,8.485352E0,3.1247913E1,0E0,0E0,4.129838E0,0E0,0E0],"parents":[2147483647,0,0,2,2,3,3,6,6],"right_children":[2,-1,4,6,-1,-1,8,-1,-1],"split_conditions":[1.7546539E-1,-9.094527E-2,6.215557E-1,-3.0994747E0,9.087351E-2,8.977886E-2,-8.9027184E-1,1.1359334E-2,-8.214002E-2],"split_indices":[0,0,0,4,0,0,1,0,0],"split_type":[0,0,0,0,0,0,0,0,0],"sum_hessian":[1.072864E4,5.3440303E3,5.3846094E3,3.8919777E1,5.3456895E3,2.9670372E1,9.249405E0,3.097621E0,6.1517844E0],"tree_param":{"num_deleted":"0","num_feature":"32","num_nodes":"9","size_leaf_vector":"1"}},{"base_weights":[-2.1826616E-3,-8.912237E-2,1.2684194E0,7.7835494E-1,8.903482E-2,8.776832E-2,-6.6030085E-1,-8.03347E-3,-8.259694E-2],"categories":[],"categories_nodes":[],"categories_segments":[],"categories_sizes":[],"default_left":[0,0,0,0,0,0,0,0,0],"id":12,"left_children":[1,-1,3,5,-1,-1,7,-1,-1],"loss_changes":[1.6540201E4,0E0,7.810547E0,2.7481586E1,0E0,0E0,2.7941785E0,0E0,0E0],"parents":[2147483647,0,0,2,2,3,3,6,6],"right_children":[2,-1,4,6,-1,-1,8,-1,-1],"split_conditions":[1.7546539E-1,-8.912237E-2,6.215557E-1,-3.0994747E0,8.903482E-2,8.776832E-2,-2.0914818E-1,-8.03347E-3,-8.259694E-2],"split_indices":[0,0,0,4,0,0,2,0,0],"split_type":[0,0,0,0,0,0,0,0,0],"sum_hessian":[1.0240068E4,5.119244E3,5.1208247E3,3.7964554E1,5.0828604E3,2.8630571E1,9.333983E0,5.1491866E0,4.1847963E0],"tree_param":{"num_deleted":"0","num_feature":"32","num_nodes":"9","size_leaf_vector":"1"}},{"base_weights":[-5.471885E-4,-8.7491766E-2,1.2444323E0,7.07699E-1,8.739176E-2,8.606424E-2,-8.7166816E-1,-8.832473E-2,-1.2563207E-2],"categories":[],"categories_nodes":[],"categories_segments":[],"categories_sizes":[],"default_left":[0,0,0,0,0,0,0,0,0],"id":13,"left_children":[1,-1,3,5,-1,-1,7,-1,-1],"loss_changes":[1.5076071E4,0E0,9.594238E0,3.2726513E1,0E0,0E0,2.5073824E0,0E0,0E0],"parents":[2147483647,0,0,2,2,3,3,6,6],"right_children":[2,-1,4,6,-1,-1,8,-1,-1],"split_conditions":[1.7546539E-1,-8.7491766E-2,6.215557E-1,-3.0994747E0,8.739176E-2,8.606424E-2,2.8565028E-3,-8.832473E-2,-1.2563207E-2],"split_indices":[0,0,0,4,0,0,30,0,0],"split_type":[0,0,0,0,0,0,0,0,0],"sum_hessian":[9.690749E3,4.8369116E3,4.8538374E3,3.741144E1,4.8164263E3,2.82874E1,9.124042E0,5.309042E0,3.8149996E0],"tree_param":{"num_deleted":"0","num_feature":"32","num_nodes":"9","size_leaf_vector":"1"}},{"base_weights":[1.6685297E-3,-8.602894E-2,1.2234758E0,7.2181433E-1,8.591477E-2,8.445878E-2,-6.901891E-1,8.904691E-3,-7.607645E-2],"categories":[],"categories_nodes":[],"categories_segments":[],"categories_sizes":[],"default_left":[0,0,0,0,0,0,0,0,0],"id":14,"left_children":[1,-1,3,5,-1,-1,7,-1,-1],"loss_changes":[1.3901595E4,0E0,8.139648E0,2.6853468E1,0E0,0E0,3.4942622E0,0E0,0E0],"parents":[2147483647,0,0,2,2,3,3,6,6],"right_children":[2,-1,4,6,-1,-1,8,-1,-1],"split_conditions":[1.7546539E-1,-8.602894E-2,6.215557E-1,-3.0994747E0,8.591477E-2,8.445878E-2,-8.9027184E-1,8.904691E-3,-7.607645E-2],"split_indices":[0,0,0,4,0,0,1,0,0],"split_type":[0,0,0,0,0,0,0,0,0],"sum_hessian":[9.24341E3,4.6050317E3,4.638379E3,3.701674E1,4.601362E3,2.76649E1,9.351838E0,3.2771456E0,6.0746922E0],"tree_param":{"num_deleted":"0","num_feature":"32","num_nodes":"9","size_leaf_vector":"1"}},{"base_weights":[6.849272E-4,1.067904E0,-9.6344066E-1,1.1001E0,-8.291243E-2,-1.0821235E0,-2.562845E-1,1.1111935E0,-8.439512E-2,-1.166885E0,-5.8595234E-1,8.512452E-2,-5.539093E-1,1.121405E0,-8.3992146E-2,-8.466495E-2,-9.005307E-1,-6.8908024E-1,8.172066E-2,-8.522229E-1,-9.145431E-3,1.1318562E0,-7.997194E-2,-9.849274E-1,-3.3206162E-1,-9.565927E-1,-2.1230091E-1,-9.533271E-1,-1.8355615E-1,6.584593E-1,-4.507184E-1,7.99222E-2,-8.376186E-2,-4.0662028E-2,-7.5601704E-2,8.141198E-2,-6.1349295E-2,-3.8031157E-2,-7.469575E-2,8.17047E-2,-3.1670675E-2,-7.231007E-2,-3.125096E-2,8.174358E-2,-5.7197012E-2,-3.371461E-2,5.2838087E-2,7.78694E-2,-4.475904E-2],"categories":[],"categories_nodes":[],"categories_segments":[],"categories_sizes":[],"default_left":[0,0,0,0,0,0,0,0,0,0,0,0,0,0,0,0,0,0,0,0,0,0,0,0,0,0,0,0,0,0,0,0,0,0,0,0,0,0,0,0,0,0,0,0,0,0,0,0,0],"id":15,"left_children":[1,3,5,7,-1,9,11,13,-1,15,17,-1,19,21,-1,-1,23,25,-1,27,29,31,-1,33,35,37,39,41,43,45,47,-1,-1,-1,-1,-1,-1,-1,-1,-1,-1,-1,-1,-1,-1,-1,-1,-1,-1],"loss_changes":[8.982109E3,3.0176025E2,3.846372E2,1.05839355E2,0E0,1.6446533E2,2.9007205E2,9.730908E1,0E0,3.696826E1,1.0477109E2,0E0,8.9381256E1,9.70918E1,0E0,0E0,2.2047577E1,6.913669E1,0E0,2.385257E1,5.797081E1,9.4186035E1,0E0,1.4955719E1,5.1312653E1,1.5309967E1,6.5684006E1,1.1997437E1,4.1978893E1,8.965675E0,3.5619034E1,0E0,0E0,0E0,0E0,0E0,0E0,0E0,0E0,0E0,0E0,0E0,0E0,0E0,0E0,0E0,0E0,0E0,0E0],"parents":[2147483647,0,0,1,1,2,2,3,3,5,5,6,6,7,7,9,9,10,10,12,12,13,13,16,16,17,17,19,19,20,20,21,21,23,23,24,24,25,25,26,26,27,27,28,28,29,29,30,30],"right_children":[2,4,6,8,-1,10,12,14,-1,16,18,-1,20,22,-1,-1,24,26,-1,28,30,32,-1,34,36,38,40,42,44,46,48,-1,-1,-1,-1,-1,-1,-1,-1,-1,-1,-1,-1,-1,-1,-1,-1,-1,-1],"split_conditions":[3.1992736E-1,1E0,4.0259836E-3,1E0,-8.291243E-2,3.5535826E-3,9.961959E-1,1E0,-8.439512E-2,3.4901057E-3,3.4901057E-3,8.512452E-2,2.8565028E-3,1E0,-8.3992146E-2,-8.466495E-2,4.079607E-3,2.8565028E-3,8.172066E-2,3.2709253E-3,-1.0334841E0,1E0,-7.997194E-2,-1.0437635E0,9.9698615E-1,-1.0334841E0,9.8552424E-1,4.5691696E-3,9.956633E-1,-1.5956197E0,9.921494E-1,7.99222E-2,-8.376186E-2,-4.0662028E-2,-7.5601704E-2,8.141198E-2,-6.1349295E-2,-3.8031157E-2,-7.469575E-2,8.17047E-2,-3.1670675E-2,-7.231007E-2,-3.125096E-2,8.174358E-2,-5.7197012E-2,-3.371461E-2,5.2838087E-2,7.78694E-2,-4.475904E-2],"split_indices":[4,29,24,18,0,23,24,21,0,22,22,0,30,27,0,0,10,30,0,16,1,20,0,1,10,1,30,8,16,1,30,0,0,0,0,0,0,0,0,0,0,0,0,0,0,0,0,0,0],"split_type":[0,0,0,0,0,0,0,0,0,0,0,0,0,0,0,0,0,0,0,0,0,0,0,0,0,0,0,0,0,0,0,0,0,0,0,0,0,0,0,0,0,0,0,0,0,0,0,0,0],"sum_hessian":[8.727536E3,4.14225E3,4.585286E3,4.0843782E3,5.787169E1,3.9258723E3,6.594141E2,4.065337E3,1.9041368E1,3.3519102E3,5.739621E2,1.10362976E2,5.4905115E2,4.0479658E3,1.7371073E1,2.8865476E3,4.6536258E2,5.426523E2,3.1309786E1,3.5441083E2,1.9464035E2,4.0298618E3,1.810395E1,4.0456668E2,6.0795887E1,3.4696823E2,1.9568407E2,3.0749158E2,4.6919243E1,7.729242E1,1.1734792E2,4.013326E3,1.6535925E1,7.843323E1,3.2613348E2,1.5923921E1,4.4871967E1,7.443992E1,2.7252832E2,2.8440725E1,1.6724335E2,2.648272E2,4.2664356E1,1.4706882E1,3.221236E1,5.7126017E0,7.157982E1,1.21126795E1,1.05235245E2],"tree_param":{"num_deleted":"0","num_feature":"32","num_nodes":"49","size_leaf_vector":"1"}},{"base_weights":[6.5319065E-4,-8.3683774E-2,1.1897895E0,6.2099385E-1,8.359241E-2,8.136323E-2,-8.581916E-1,-7.23576E-2,-2.8896352E-2],"categories":[],"categories_nodes":[],"categories_segments":[],"categories_sizes":[],"default_left":[0,0,0,0,0,0,0,0,0],"id":16,"left_children":[1,-1,3,5,-1,-1,7,-1,-1],"loss_changes":[1.1804363E4,0E0,9.64502E0,2.817551E1,0E0,0E0,3.290043E-1,0E0,0E0],"parents":[2147483647,0,0,2,2,3,3,6,6],"right_children":[2,-1,4,6,-1,-1,8,-1,-1],"split_conditions":[1.7546539E-1,-8.3683774E-2,6.215557E-1,-3.0994747E0,8.359241E-2,8.136323E-2,2.8565028E-3,-7.23576E-2,-2.8896352E-2],"split_indices":[0,0,0,4,0,0,30,0,0],"split_type":[0,0,0,0,0,0,0,0,0],"sum_hessian":[8.297091E3,4.136369E3,4.1607217E3,3.2941143E1,4.1277803E3,2.427238E1,8.668763E0,5.27104E0,3.397723E0],"tree_param":{"num_deleted":"0","num_feature":"32","num_nodes":"9","size_leaf_vector":"1"}},{"base_weights":[2.705649E-3,-8.2580715E-2,1.1748309E0,6.978145E-1,8.248548E-2,8.0207646E-2,-7.492085E-1,-7.8262866E-2,-9.913574E-3],"categories":[],"categories_nodes":[],"categories_segments":[],"categories_sizes":[],"default_left":[0,0,0,0,0,0,0,0,0],"id":17,"left_children":[1,-1,3,5,-1,-1,7,-1,-1],"loss_changes":[1.0845722E4,0E0,5.8012695E0,2.1178576E1,0E0,0E0,1.637783E0,0E0,0E0],"parents":[2147483647,0,0,2,2,3,3,6,6],"right_children":[2,-1,4,6,-1,-1,8,-1,-1],"split_conditions":[1.7546539E-1,-8.2580715E-2,6.215557E-1,-3.0994747E0,8.248548E-2,8.0207646E-2,2.8565028E-3,-7.8262866E-2,-9.913574E-3],"split_indices":[0,0,0,4,0,0,30,0,0],"split_type":[0,0,0,0,0,0,0,0,0],"sum_hessian":[7.823444E3,3.8945989E3,3.928845E3,3.034469E1,3.8985002E3,2.3329773E1,7.0149183E0,3.8423193E0,3.1725993E0],"tree_param":{"num_deleted":"0","num_feature":"32","num_nodes":"9","size_leaf_vector":"1"}},{"base_weights":[5.629759E-4,-8.1584044E-2,1.1598073E0,6.894127E-1,8.143873E-2,7.912318E-2,-5.764413E-1,1.0608955E-3,-6.479044E-2],"categories":[],"categories_nodes":[],"categories_segments":[],"categories_sizes":[],"default_left":[0,0,0,0,0,0,0,0,0],"id":18,"left_children":[1,-1,3,5,-1,-1,7,-1,-1],"loss_changes":[1.0042006E4,0E0,5.5126953E0,1.7827404E1,0E0,0E0,1.7928419E0,0E0,0E0],"parents":[2147483647,0,0,2,2,3,3,6,6],"right_children":[2,-1,4,6,-1,-1,8,-1,-1],"split_conditions":[1.7546539E-1,-8.1584044E-2,6.215557E-1,-3.0994747E0,8.143873E-2,7.912318E-2,-8.9027184E-1,1.0608955E-3,-6.479044E-2],"split_indices":[0,0,0,4,0,0,1,0,0],"split_type":[0,0,0,0,0,0,0,0,0],"sum_hessian":[7.42697E3,3.702615E3,3.7243552E3,2.9773445E1,3.6945818E3,2.2161337E1,7.612108E0,3.18012E0,4.4319882E0],"tree_param":{"num_deleted":"0","num_feature":"32","num_nodes":"9","size_leaf_vector":"1"}},{"base_weights":[-4.7617726E-4,-8.067185E-2,1.1472005E0,7.1414804E-1,8.054098E-2,7.809601E-2,-4.8725435E-1,2.2776227E-3,-6.909046E-2],"categories":[],"categories_nodes":[],"categories_segments":[],"categories_sizes":[],"default_left":[0,0,0,0,0,0,0,0,0],"id":19,"left_children":[1,-1,3,5,-1,-1,7,-1,-1],"loss_changes":[9.2085E3,0E0,4.2929688E0,1.4868847E1,0E0,0E0,2.145277E0,0E0,0E0],"parents":[2147483647,0,0,2,2,3,3,6,6],"right_children":[2,-1,4,6,-1,-1,8,-1,-1],"split_conditions":[1.7546539E-1,-8.067185E-2,6.215557E-1,-3.0994747E0,8.054098E-2,7.809601E-2,-2.0914818E-1,2.2776227E-3,-6.909046E-2],"split_indices":[0,0,0,4,0,0,2,0,0],"split_type":[0,0,0,0,0,0,0,0,0],"sum_hessian":[6.9630605E3,3.4750151E3,3.4880457E3,2.869735E1,3.4593481E3,2.1562515E1,7.134834E0,3.9555566E0,3.1792774E0],"tree_param":{"num_deleted":"0","num_feature":"32","num_nodes":"9","size_leaf_vector":"1"}},{"base_weights":[3.934184E-3,-7.984502E-2,1.1351526E0,6.4381707E-1,7.972638E-2,7.688315E-2,-6.7714727E-1,-1.4347115E-2,-7.003107E-2],"categories":[],"categories_nodes":[],"categories_segments":[],"categories_sizes":[],"default_left":[0,0,0,0,0,0,0,0,0],"id":20,"left_children":[1,-1,3,5,-1,-1,7,-1,-1],"loss_changes":[8.504928E3,0E0,5.4282227E0,1.7330235E1,0E0,0E0,9.689903E-1,0E0,0E0],"parents":[2147483647,0,0,2,2,3,3,6,6],"right_children":[2,-1,4,6,-1,-1,8,-1,-1],"split_conditions":[1.7546539E-1,-7.984502E-2,6.215557E-1,-3.0994747E0,7.972638E-2,7.688315E-2,-2.0914818E-1,-1.4347115E-2,-7.003107E-2],"split_indices":[0,0,0,4,0,0,2,0,0],"split_type":[0,0,0,0,0,0,0,0,0],"sum_hessian":[6.566695E3,3.26407E3,3.3026248E3,2.6625923E1,3.2759988E3,1.9935211E1,6.6907125E0,3.3832688E0,3.3074436E0],"tree_param":{"num_deleted":"0","num_feature":"32","num_nodes":"9","size_leaf_vector":"1"}},{"base_weights":[2.85548E-3,-7.9086676E-2,1.1234975E0,5.825715E-1,7.89316E-2,7.565797E-2,-6.0336137E-1,4.8734015E-3,-7.143116E-2],"categories":[],"categories_nodes":[],"categories_segments":[],"categories_sizes":[],"default_left":[0,0,0,0,0,0,0,0,0],"id":21,"left_children":[1,-1,3,5,-1,-1,7,-1,-1],"loss_changes":[7.856526E3,0E0,6.237793E0,1.5693794E1,0E0,0E0,2.3650105E0,0E0,0E0],"parents":[2147483647,0,0,2,2,3,3,6,6],"right_children":[2,-1,4,6,-1,-1,8,-1,-1],"split_conditions":[1.7546539E-1,-7.9086676E-2,6.215557E-1,-3.0994747E0,7.89316E-2,7.565797E-2,-8.6794263E-1,4.8734015E-3,-7.143116E-2],"split_indices":[0,0,0,4,0,0,1,0,0],"split_type":[0,0,0,0,0,0,0,0,0],"sum_hessian":[6.1875933E3,3.0772847E3,3.1103083E3,2.4455557E1,3.0858528E3,1.7282944E1,7.1726136E0,3.0631597E0,4.1094537E0],"tree_param":{"num_deleted":"0","num_feature":"32","num_nodes":"9","size_leaf_vector":"1"}},{"base_weights":[-3.925224E-3,9.7992975E-1,-8.8400424E-1,1.0080417E0,-7.6014765E-2,-9.9436635E-1,-2.4868406E-1,1.0181391E0,-7.4693985E-2,-1.057299E0,-8.3079517E-1,7.814364E-2,-5.1543367E-1,1.0280422E0,-7.2340526E-2,-7.743736E-2,-9.643425E-1,7.648928E-2,-9.202162E-1,-7.849276E-1,-8.577246E-3,1.0368292E0,-7.377568E-2,-9.9566334E-1,7.2529756E-2,-9.6879387E-1,-5.6050766E-1,-1.0040126E0,-4.4498527E-1,7.449769E-2,-2.0440237E-1,7.319634E-2,-7.284028E-2,-5.4089632E-2,-7.321559E-2,-4.5143597E-2,-7.0398666E-2,7.6444075E-2,-7.1450695E-2,-5.022629E-2,-7.613255E-2,-3.620229E-2,6.413988E-2,2.4896456E-2,-4.0833313E-2],"categories":[],"categories_nodes":[],"categories_segments":[],"categories_sizes":[],"default_left":[0,0,0,0,0,0,0,0,0,0,0,0,0,0,0,0,0,0,0,0,0,0,0,0,0,0,0,0,0,0,0,0,0,0,0,0,0,0,0,0,0,0,0,0,0],"id":22,"left_children":[1,3,5,7,-1,9,11,13,-1,15,17,-1,19,21,-1,-1,23,-1,25,27,29,31,-1,33,-1,35,37,39,41,-1,43,-1,-1,-1,-1,-1,-1,-1,-1,-1,-1,-1,-1,-1,-1],"loss_changes":[5.027528E3,1.6030981E2,2.1464185E2,5.776953E1,0E0,2.5998047E1,1.6622351E2,5.5769043E1,0E0,7.4956055E0,1.26580414E2,0E0,5.206923E1,5.0125977E1,0E0,0E0,4.219104E1,0E0,1.1656982E1,1.8089798E1,2.8233088E1,5.0070557E1,0E0,6.4470215E0,0E0,6.6868286E0,6.609758E1,2.8253326E0,1.0235849E1,0E0,2.4317896E1,0E0,0E0,0E0,0E0,0E0,0E0,0E0,0E0,0E0,0E0,0E0,0E0,0E0,0E0],"parents":[2147483647,0,0,1,1,2,2,3,3,5,5,6,6,7,7,9,9,10,10,12,12,13,13,16,16,18,18,19,19,20,20,21,21,23,23,25,25,26,26,27,27,28,28,30,30],"right_children":[2,4,6,8,-1,10,12,14,-1,16,18,-1,20,22,-1,-1,24,-1,26,28,30,32,-1,34,-1,36,38,40,42,-1,44,-1,-1,-1,-1,-1,-1,-1,-1,-1,-1,-1,-1,-1,-1],"split_conditions":[3.1992736E-1,1E0,4.0259836E-3,1E0,-7.6014765E-2,2.8565028E-3,9.961959E-1,1E0,-7.4693985E-2,4.711162E-3,9.9558985E-1,7.814364E-2,2.8565028E-3,1E0,-7.2340526E-2,-7.743736E-2,4.3333163E-3,7.648928E-2,3.8832643E-3,4.711162E-3,9.9558985E-1,1E0,-7.377568E-2,-1.0334841E0,7.2529756E-2,-1.3199086E0,9.924584E-1,-8.9027184E-1,4.3333163E-3,7.449769E-2,-8.9027184E-1,7.319634E-2,-7.284028E-2,-5.4089632E-2,-7.321559E-2,-4.5143597E-2,-7.0398666E-2,7.6444075E-2,-7.1450695E-2,-5.022629E-2,-7.613255E-2,-3.620229E-2,6.413988E-2,2.4896456E-2,-4.0833313E-2],"split_indices":[4,29,24,18,0,30,24,27,0,31,30,0,30,21,0,0,28,0,17,31,30,26,0,1,0,1,17,1,28,0,1,0,0,0,0,0,0,0,0,0,0,0,0,0,0],"split_type":[0,0,0,0,0,0,0,0,0,0,0,0,0,0,0,0,0,0,0,0,0,0,0,0,0,0,0,0,0,0,0,0,0,0,0,0,0,0,0,0,0,0,0,0,0],"sum_hessian":[5.80433E3,2.740531E3,3.0637988E3,2.704244E3,3.6287094E1,2.6098704E3,4.5392844E2,2.6916558E3,1.2588114E1,1.8807888E3,7.2908154E2,7.368413E1,3.802443E2,2.679222E3,1.2433925E1,1.2248864E3,6.559025E2,3.188995E1,6.971916E2,2.4789221E2,1.323521E2,2.6684617E3,1.0760309E1,6.4628613E2,9.616386E0,6.127483E2,8.444331E1,1.4955438E2,9.833782E1,1.9744877E1,1.1260722E2,2.6576584E3,1.0803167E1,1.2192795E2,5.243582E2,6.456185E1,5.4818646E2,1.8094795E1,6.634852E1,3.5945786E1,1.13608604E2,9.39743E1,4.3635283E0,4.5467243E1,6.713998E1],"tree_param":{"num_deleted":"0","num_feature":"32","num_nodes":"45","size_leaf_vector":"1"}},{"base_weights":[-2.0256126E-3,-7.787375E-2,1.1058297E0,5.8098525E-1,7.7708095E-2,7.3957734E-2,-4.240311E-1,5.787683E-3,-4.9933434E-2],"categories":[],"categories_nodes":[],"categories_segments":[],"categories_sizes":[],"default_left":[0,0,0,0,0,0,0,0,0],"id":23,"left_children":[1,-1,3,5,-1,-1,7,-1,-1],"loss_changes":[6.779256E3,0E0,5.5603027E0,1.2129776E1,0E0,0E0,1.3144474E0,0E0,0E0],"parents":[2147483647,0,0,2,2,3,3,6,6],"right_children":[2,-1,4,6,-1,-1,8,-1,-1],"split_conditions":[1.7546539E-1,-7.787375E-2,6.215557E-1,-3.0994747E0,7.7708095E-2,7.3957734E-2,-8.9027184E-1,5.787683E-3,-4.9933434E-2],"split_indices":[0,0,0,4,0,0,1,0,0],"split_type":[0,0,0,0,0,0,0,0,0],"sum_hessian":[5.508581E3,2.7510586E3,2.7575222E3,2.344195E1,2.7340803E3,1.5877681E1,7.564269E0,3.008725E0,4.555544E0],"tree_param":{"num_deleted":"0","num_feature":"32","num_nodes":"9","size_leaf_vector":"1"}},{"base_weights":[-4.7520752E-4,-7.728939E-2,1.096867E0,4.9386373E-1,7.712983E-2,7.309337E-2,-6.364428E-1,-1.4910953E-2,-6.7680426E-2],"categories":[],"categories_nodes":[],"categories_segments":[],"categories_sizes":[],"default_left":[0,0,0,0,0,0,0,0,0],"id":24,"left_children":[1,-1,3,5,-1,-1,7,-1,-1],"loss_changes":[6.2862363E3,0E0,7.2841797E0,1.5073912E1,0E0,0E0,9.422345E-1,0E0,0E0],"parents":[2147483647,0,0,2,2,3,3,6,6],"right_children":[2,-1,4,6,-1,-1,8,-1,-1],"split_conditions":[1.7546539E-1,-7.728939E-2,6.215557E-1,-3.0994747E0,7.712983E-2,7.309337E-2,-2.9084876E-1,-1.4910953E-2,-6.7680426E-2],"split_indices":[0,0,0,4,0,0,2,0,0],"split_type":[0,0,0,0,0,0,0,0,0],"sum_hessian":[5.1885547E3,2.5868289E3,2.6017258E3,2.2164713E1,2.579561E3,1.4958068E1,7.2066445E0,3.879629E0,3.3270159E0],"tree_param":{"num_deleted":"0","num_feature":"32","num_nodes":"9","size_leaf_vector":"1"}},{"base_weights":[4.473594E-3,-7.673965E-2,1.0888609E0,5.837689E-1,7.651228E-2,7.256972E-2,-4.7521102E-1,-7.291002E-3,-5.037366E-2],"categories":[],"categories_nodes":[],"categories_segments":[],"categories_sizes":[],"default_left":[0,0,0,0,0,0,0,0,0],"id":25,"left_children":[1,-1,3,5,-1,-1,7,-1,-1],"loss_changes":[5.816802E3,0E0,4.534668E0,1.1167284E1,0E0,0E0,5.9187114E-1,0E0,0E0],"parents":[2147483647,0,0,2,2,3,3,6,6],"right_children":[2,-1,4,6,-1,-1,8,-1,-1],"split_conditions":[1.7546539E-1,-7.673965E-2,6.215557E-1,-3.0994747E0,7.651228E-2,7.256972E-2,-7.059755E-1,-7.291002E-3,-5.037366E-2],"split_indices":[0,0,0,4,0,0,1,0,0],"split_type":[0,0,0,0,0,0,0,0,0],"sum_hessian":[4.8711465E3,2.4173252E3,2.4538215E3,2.1254766E1,2.4325667E3,1.4901993E1,6.3527727E0,3.0891495E0,3.2636235E0],"tree_param":{"num_deleted":"0","num_feature":"32","num_nodes":"9","size_leaf_vector":"1"}},{"base_weights":[1.6894453E-3,-7.623987E-2,1.0830551E0,6.229042E-1,7.609031E-2,7.1846545E-2,-2.2555588E-1,-4.229034E-2,1.9794654E-2],"categories":[],"categories_nodes":[],"categories_segments":[],"categories_sizes":[],"default_left":[0,0,0,0,0,0,0,0,0],"id":26,"left_children":[1,-1,3,5,-1,-1,7,-1,-1],"loss_changes":[5.376683E3,0E0,3.4824219E0,7.701309E0,0E0,0E0,1.6819965E0,0E0,0E0],"parents":[2147483647,0,0,2,2,3,3,6,6],"right_children":[2,-1,4,6,-1,-1,8,-1,-1],"split_conditions":[1.7546539E-1,-7.623987E-2,6.215557E-1,-3.0994747E0,7.609031E-2,7.1846545E-2,-5.2510446E-1,-4.229034E-2,1.9794654E-2],"split_indices":[0,0,0,4,0,0,3,0,0],"split_type":[0,0,0,0,0,0,0,0,0],"sum_hessian":[4.556108E3,2.2681243E3,2.2879834E3,2.0820316E1,2.267163E3,1.3968205E1,6.85211E0,3.8192115E0,3.0328987E0],"tree_param":{"num_deleted":"0","num_feature":"32","num_nodes":"9","size_leaf_vector":"1"}},{"base_weights":[8.9123263E-4,5.740033E-1,-3.3029234E-1,6.7327034E-1,-7.5421706E-2,-5.587927E-1,4.5266777E-1,7.07932E-1,-7.3209494E-2,-4.3971914E-1,-7.5493686E-2,5.6364745E-1,-7.391832E-2,7.433346E-1,-7.329232E-2,-5.6303126E-1,1.2564178E-1,7.533935E-2,4.341073E-1,7.801012E-1,-7.347192E-2,-4.508471E-1,-8.498272E-1,7.4149586E-2,-4.6755835E-2,5.3623617E-1,5.5504184E-2,5.7105444E-2,-7.322391E-2,-3.4082234E-2,7.275353E-2,-6.212452E-2,-3.8101595E-2,4.5784567E-3,-2.4729256E-2,3.9969247E-2,-1.1128411E-2,-4.082294E-3,3.8974963E-2],"categories":[],"categories_nodes":[],"categories_segments":[],"categories_sizes":[],"default_left":[0,0,0,0,0,0,0,0,0,0,0,0,0,0,0,0,0,0,0,0,0,0,0,0,0,0,0,0,0,0,0,0,0,0,0,0,0,0,0],"id":27,"left_children":[1,3,5,7,-1,9,11,13,-1,15,-1,17,-1,19,-1,21,23,-1,25,27,-1,29,31,-1,33,35,37,-1,-1,-1,-1,-1,-1,-1,-1,-1,-1,-1,-1],"loss_changes":[8.1265393E2,2.5778137E2,4.8571274E2,8.891461E1,0E0,1.2953333E2,1.0332253E2,9.093512E1,0E0,1.1935251E2,0E0,3.75282E1,0E0,9.4621826E1,0E0,4.4814575E1,4.9492268E1,0E0,1.7695824E1,9.177313E1,0E0,5.485573E1,4.0493774E0,0E0,8.97074E0,8.810883E0,5.6529026E0,0E0,0E0,0E0,0E0,0E0,0E0,0E0,0E0,0E0,0E0,0E0,0E0],"parents":[2147483647,0,0,1,1,2,2,3,3,5,5,6,6,7,7,9,9,11,11,13,13,15,15,16,16,18,18,19,19,21,21,22,22,24,24,25,25,26,26],"right_children":[2,4,6,8,-1,10,12,14,-1,16,-1,18,-1,20,-1,22,24,-1,26,28,-1,30,32,-1,34,36,38,-1,-1,-1,-1,-1,-1,-1,-1,-1,-1,-1,-1],"split_conditions":[-1.0334841E0,1E0,4.0259836E-3,1E0,-7.5421706E-2,1E0,1E0,1E0,-7.3209494E-2,3.4901057E-3,-7.5493686E-2,9.961959E-1,-7.391832E-2,1E0,-7.329232E-2,9.965838E-1,9.966078E-1,7.533935E-2,9.965838E-1,1E0,-7.347192E-2,4.3333163E-3,5.5835308E-3,7.4149586E-2,9.918289E-1,9.9188703E-1,2.3713969E-3,5.7105444E-2,-7.322391E-2,-3.4082234E-2,7.275353E-2,-6.212452E-2,-3.8101595E-2,4.5784567E-3,-2.4729256E-2,3.9969247E-2,-1.1128411E-2,-4.082294E-3,3.8974963E-2],"split_indices":[1,29,24,27,0,29,29,25,0,22,0,24,0,20,0,28,22,0,28,18,0,28,14,0,28,14,15,0,0,0,0,0,0,0,0,0,0,0,0],"split_type":[0,0,0,0,0,0,0,0,0,0,0,0,0,0,0,0,0,0,0,0,0,0,0,0,0,0,0,0,0,0,0,0,0,0,0,0,0,0,0],"sum_hessian":[4.2795146E3,1.5670342E3,2.7124805E3,1.4787411E3,8.829302E1,2.099922E3,6.125585E2,1.4500919E3,2.8649193E1,1.7099712E3,3.899509E2,5.711683E2,4.139019E1,1.4219829E3,2.8108967E1,1.4037914E3,3.0617987E2,1.13743355E2,4.574249E2,1.3939628E3,2.802024E1,1.01092584E3,3.9286548E2,4.6922356E1,2.592575E2,3.599196E2,9.750532E1,1.3677837E3,2.617904E1,9.877101E2,2.3215765E1,3.4805103E2,4.481447E1,1.9037982E2,6.8877686E1,3.429543E2,1.6965263E1,8.0182465E1,1.7322859E1],"tree_param":{"num_deleted":"0","num_feature":"32","num_nodes":"39","size_leaf_vector":"1"}},{"base_weights":[2.2088408E-3,-7.558856E-2,1.0739682E0,7.126907E-1,7.536737E-2,7.0629254E-2,-7.95138E-3],"categories":[],"categories_nodes":[],"categories_segments":[],"categories_sizes":[],"default_left":[0,0,0,0,0,0,0],"id":28,"left_children":[1,-1,3,5,-1,-1,-1],"loss_changes":[4.80543E3,0E0,1.2697754E0,4.63144E0,0E0,0E0,0E0],"parents":[2147483647,0,0,2,2,3,3],"right_children":[2,-1,4,6,-1,-1,-1],"split_conditions":[1.7546539E-1,-7.558856E-2,6.215557E-1,-3.0994747E0,7.536737E-2,7.0629254E-2,-7.95138E-3],"split_indices":[0,0,0,4,0,0,0],"split_type":[0,0,0,0,0,0,0],"sum_hessian":[4.141711E3,2.060962E3,2.0807493E3,1.7449121E1,2.0633E3,1.268077E1,4.768352E0],"tree_param":{"num_deleted":"0","num_feature":"32","num_nodes":"7","size_leaf_vector":"1"}},{"base_weights":[2.1813253E-3,9.3040454E-1,-8.3301735E-1,9.4301164E-1,-7.065025E-2,-9.4174093E-1,-2.2665365E-1,9.553892E-1,-6.989224E-2,-9.8459166E-1,-6.524596E-1,7.4139304E-2,-4.6264613E-1,9.678771E-1,-6.996904E-2,-1.0320858E0,-8.6084193E-1,7.0283316E-2,-7.655241E-1,8.361692E-2,-6.6438115E-1,9.795733E-1,-6.950021E-2,-7.435951E-2,-9.735579E-1,7.0691004E-2,-9.2146057E-1,-8.5022E-1,-2.2192532E-1,-3.627011E-1,5.047804E-1,-7.589313E-1,-7.9834595E-2,6.936872E-2,-6.806555E-2,-7.0492126E-2,-4.8788164E-2,-6.7305975E-2,-4.364181E-2,-3.9913006E-2,-6.590023E-2,6.7608654E-2,-4.7349427E-2,-5.3730823E-2,-8.048299E-3,-2.0305412E-2,4.106028E-2,-6.0693357E-2,-1.4117963E-2,6.923819E-2,-4.607616E-2],"categories":[],"categories_nodes":[],"categories_segments":[],"categories_sizes":[],"default_left":[0,0,0,0,0,0,0,0,0,0,0,0,0,0,0,0,0,0,0,0,0,0,0,0,0,0,0,0,0,0,0,0,0,0,0,0,0,0,0,0,0,0,0,0,0,0,0,0,0,0,0],"id":29,"left_children":[1,3,5,7,-1,9,11,13,-1,15,17,-1,19,21,-1,23,25,-1,27,29,31,33,-1,-1,35,-1,37,39,41,43,45,47,49,-1,-1,-1,-1,-1,-1,-1,-1,-1,-1,-1,-1,-1,-1,-1,-1,-1,-1],"loss_changes":[3.0248853E3,4.614258E1,1.3518713E2,4.5088013E1,0E0,2.0941772E1,9.564307E1,4.5532593E1,0E0,8.013672E0,4.339894E1,0E0,2.9330452E1,4.258203E1,0E0,8.909912E-1,4.9250916E1,0E0,9.6473465E0,1.3817581E1,1.066806E1,4.1138794E1,0E0,0E0,2.8416138E0,0E0,4.333191E0,4.1754456E0,1.6930498E1,3.5022159E0,2.6236353E0,9.884834E0,1.8052088E1,0E0,0E0,0E0,0E0,0E0,0E0,0E0,0E0,0E0,0E0,0E0,0E0,0E0,0E0,0E0,0E0,0E0,0E0],"parents":[2147483647,0,0,1,1,2,2,3,3,5,5,6,6,7,7,9,9,10,10,12,12,13,13,15,15,16,16,18,18,19,19,20,20,21,21,24,24,26,26,27,27,28,28,29,29,30,30,31,31,32,32],"right_children":[2,4,6,8,-1,10,12,14,-1,16,18,-1,20,22,-1,24,26,-1,28,30,32,34,-1,-1,36,-1,38,40,42,44,46,48,50,-1,-1,-1,-1,-1,-1,-1,-1,-1,-1,-1,-1,-1,-1,-1,-1,-1,-1],"split_conditions":[3.1992736E-1,1E0,4.0259836E-3,1E0,-7.065025E-2,3.4901057E-3,9.961959E-1,1E0,-6.989224E-2,2.8565028E-3,9.936372E-1,7.4139304E-2,-1.0334841E0,1E0,-6.996904E-2,4.711162E-3,9.921494E-1,7.0283316E-2,4.079607E-3,2.8565028E-3,3.2709253E-3,1E0,-6.950021E-2,-7.435951E-2,2.3713969E-3,7.0691004E-2,3.8832643E-3,-8.9027184E-1,9.9463403E-1,-1.4546496E0,-1.5857575E0,4.5691696E-3,9.956633E-1,6.936872E-2,-6.806555E-2,-7.0492126E-2,-4.8788164E-2,-6.7305975E-2,-4.364181E-2,-3.9913006E-2,-6.590023E-2,6.7608654E-2,-4.7349427E-2,-5.3730823E-2,-8.048299E-3,-2.0305412E-2,4.106028E-2,-6.0693357E-2,-1.4117963E-2,6.923819E-2,-4.607616E-2],"split_indices":[4,20,24,21,0,22,24,25,0,30,22,0,1,19,0,31,30,0,10,30,16,27,0,0,15,0,17,1,10,1,1,8,16,0,0,0,0,0,0,0,0,0,0,0,0,0,0,0,0,0,0],"split_type":[0,0,0,0,0,0,0,0,0,0,0,0,0,0,0,0,0,0,0,0,0,0,0,0,0,0,0,0,0,0,0,0,0,0,0,0,0,0,0,0,0,0,0,0,0,0,0,0,0,0,0],"sum_hessian":[3.8998157E3,1.8469918E3,2.052824E3,1.8355752E3,1.1416526E1,1.7402386E3,3.125853E2,1.8244517E3,1.1123617E1,1.5136245E3,2.2661414E2,4.7933792E1,2.646515E2,1.8133729E3,1.1078654E1,1.0885195E3,4.25105E2,1.397571E1,2.1263843E2,7.153439E1,1.9311711E2,1.8031174E3,1.0255566E1,7.0676855E2,3.8175098E2,1.2851252E1,4.1225375E2,1.8348615E2,2.9152288E1,3.4797443E1,3.6736954E1,1.6597276E2,2.7144348E1,1.7931294E3,9.987963E0,3.3818283E2,4.3568153E1,3.6144714E2,5.0806618E1,4.6862476E1,1.3662366E2,7.7565317E0,2.1395758E1,1.2412288E1,2.2385155E1,3.1901097E0,3.3546844E1,1.3853777E2,2.7434996E1,9.281262E0,1.7863085E1],"tree_param":{"num_deleted":"0","num_feature":"32","num_nodes":"51","size_leaf_vector":"1"}},{"base_weights":[1.7764823E-3,-7.489732E-2,1.0604628E0,4.6223652E-1,7.461116E-2,6.894524E-2,-3.9919913E-1,4.2918426E-4,-4.9100067E-2],"categories":[],"categories_nodes":[],"categories_segments":[],"categories_sizes":[],"default_left":[0,0,0,0,0,0,0,0,0],"id":30,"left_children":[1,-1,3,5,-1,-1,7,-1,-1],"loss_changes":[4.180409E3,0E0,5.506592E0,8.669073E0,0E0,0E0,9.417522E-1,0E0,0E0],"parents":[2147483647,0,0,2,2,3,3,6,6],"right_children":[2,-1,4,6,-1,-1,8,-1,-1],"split_conditions":[1.7546539E-1,-7.489732E-2,6.215557E-1,-3.0994747E0,7.461116E-2,6.894524E-2,-8.6794263E-1,4.2918426E-4,-4.9100067E-2],"split_indices":[0,0,0,4,0,0,1,0,0],"split_type":[0,0,0,0,0,0,0,0,0],"sum_hessian":[3.6823665E3,1.8298982E3,1.8524684E3,1.7379898E1,1.8350885E3,1.0727429E1,6.652469E0,3.2600422E0,3.3924272E0],"tree_param":{"num_deleted":"0","num_feature":"32","num_nodes":"9","size_leaf_vector":"1"}},{"base_weights":[3.3981225E-4,-7.4536145E-2,1.0560256E0,5.792177E-1,7.422656E-2,6.8747826E-2,-1.3255143E-2],"categories":[],"categories_nodes":[],"categories_segments":[],"categories_sizes":[],"default_left":[0,0,0,0,0,0,0],"id":31,"left_children":[1,-1,3,5,-1,-1,-1],"loss_changes":[3.8817222E3,0E0,2.9848633E0,5.726124E0,0E0,0E0,0E0],"parents":[2147483647,0,0,2,2,3,3],"right_children":[2,-1,4,6,-1,-1,-1],"split_conditions":[1.7546539E-1,-7.4536145E-2,6.215557E-1,-3.0994747E0,7.422656E-2,6.8747826E-2,-1.3255143E-2],"split_indices":[0,0,0,4,0,0,0],"split_type":[0,0,0,0,0,0,0],"sum_hessian":[3.4500918E3,1.7173502E3,1.7327415E3,1.6891365E1,1.7158501E3,1.0899782E1,5.9915833E0],"tree_param":{"num_deleted":"0","num_feature":"32","num_nodes":"7","size_leaf_vector":"1"}},{"base_weights":[9.849916E-4,-7.4202836E-2,1.051128E0,5.6412053E-1,7.387847E-2,6.766194E-2,-1.1214897E-2],"categories":[],"categories_nodes":[],"categories_segments":[],"categories_sizes":[],"default_left":[0,0,0,0,0,0,0],"id":32,"left_children":[1,-1,3,5,-1,-1,-1],"loss_changes":[3.5978618E3,0E0,2.7861328E0,4.9013505E0,0E0,0E0,0E0],"parents":[2147483647,0,0,2,2,3,3],"right_children":[2,-1,4,6,-1,-1,-1],"split_conditions":[1.7546539E-1,-7.4202836E-2,6.215557E-1,-3.0994747E0,7.387847E-2,6.766194E-2,-1.1214897E-2],"split_indices":[0,0,0,4,0,0,0],"split_type":[0,0,0,0,0,0,0],"sum_hessian":[3.2270159E3,1.6051862E3,1.6218298E3,1.528138E1,1.6065485E3,9.608123E0,5.673257E0],"tree_param":{"num_deleted":"0","num_feature":"32","num_nodes":"7","size_leaf_vector":"1"}},{"base_weights":[7.7016724E-5,9.0656245E-1,-8.101876E-1,9.332042E-1,-7.014344E-2,-9.19599E-1,-2.2174723E-1,9.437258E-1,-6.6434965E-2,-1.0123913E0,-4.1570807E-1,7.270306E-2,-4.4752094E-1,9.53399E-1,-6.525794E-2,-7.405946E-2,-7.4655807E-1,-4.9577072E-1,6.7748636E-2,8.129935E-2,-6.583448E-1,9.6288943E-1,-6.505841E-2,-8.76939E-1,-4.3710792E-1,-7.530709E-1,-8.420726E-2,-3.6309206E-1,5.0764143E-1,-7.86946E-1,-3.6046267E-1,6.807264E-2,-6.497272E-2,-7.1719564E-2,-4.4307575E-2,6.4058825E-2,-4.4596773E-2,-6.72787E-2,-3.2023795E-2,6.6428035E-2,-1.6391844E-2,-5.4344773E-2,-7.1719876E-3,7.6165246E-3,4.5717567E-2,-6.9624856E-2,-3.2862578E-2,5.936391E-2,-3.4349892E-2],"categories":[],"categories_nodes":[],"categories_segments":[],"categories_sizes":[],"default_left":[0,0,0,0,0,0,0,0,0,0,0,0,0,0,0,0,0,0,0,0,0,0,0,0,0,0,0,0,0,0,0,0,0,0,0,0,0,0,0,0,0,0,0,0,0,0,0,0,0],"id":33,"left_children":[1,3,5,7,-1,9,11,13,-1,15,17,-1,19,21,-1,-1,23,25,-1,27,29,31,-1,33,35,37,39,41,43,45,47,-1,-1,-1,-1,-1,-1,-1,-1,-1,-1,-1,-1,-1,-1,-1,-1,-1,-1],"loss_changes":[2.225566E3,7.365503E1,1.028042E2,2.883899E1,0E0,6.2644653E1,7.221948E1,2.6359741E1,0E0,1.3009399E1,2.3902363E1,0E0,2.3973633E1,2.585559E1,0E0,0E0,6.4785995E0,2.1173439E1,0E0,1.1939559E1,5.596916E0,2.6083252E1,0E0,3.6254425E0,1.4756312E1,7.1413803E0,1.23495455E1,3.2554445E0,1.7902756E0,6.5472794E0,7.992885E0,0E0,0E0,0E0,0E0,0E0,0E0,0E0,0E0,0E0,0E0,0E0,0E0,0E0,0E0,0E0,0E0,0E0,0E0],"parents":[2147483647,0,0,1,1,2,2,3,3,5,5,6,6,7,7,9,9,10,10,12,12,13,13,16,16,17,17,19,19,20,20,21,21,23,23,24,24,25,25,26,26,27,27,28,28,29,29,30,30],"right_children":[2,4,6,8,-1,10,12,14,-1,16,18,-1,20,22,-1,-1,24,26,-1,28,30,32,-1,34,36,38,40,42,44,46,48,-1,-1,-1,-1,-1,-1,-1,-1,-1,-1,-1,-1,-1,-1,-1,-1,-1,-1],"split_conditions":[3.1992736E-1,1E0,4.0259836E-3,1E0,-7.014344E-2,3.5535826E-3,9.961959E-1,1E0,-6.6434965E-2,3.4901057E-3,3.4901057E-3,7.270306E-2,-1.0334841E0,1E0,-6.525794E-2,-7.405946E-2,2.8565028E-3,2.8565028E-3,6.7748636E-2,2.8565028E-3,2.8565028E-3,1E0,-6.505841E-2,4.711162E-3,9.769544E-1,4.711162E-3,9.921494E-1,-1.4546496E0,-1.4546496E0,4.711162E-3,9.921494E-1,6.807264E-2,-6.497272E-2,-7.1719564E-2,-4.4307575E-2,6.4058825E-2,-4.4596773E-2,-6.72787E-2,-3.2023795E-2,6.6428035E-2,-1.6391844E-2,-5.4344773E-2,-7.1719876E-3,7.6165246E-3,4.5717567E-2,-6.9624856E-2,-3.2862578E-2,5.936391E-2,-3.4349892E-2],"split_indices":[4,29,24,18,0,23,24,25,0,22,22,0,1,26,0,0,30,30,0,30,30,21,0,31,30,31,30,1,1,31,30,0,0,0,0,0,0,0,0,0,0,0,0,0,0,0,0,0,0],"split_type":[0,0,0,0,0,0,0,0,0,0,0,0,0,0,0,0,0,0,0,0,0,0,0,0,0,0,0,0,0,0,0,0,0,0,0,0,0,0,0,0,0,0,0,0,0,0,0,0,0],"sum_hessian":[3.028071E3,1.4291204E3,1.5989506E3,1.4099503E3,1.9170033E1,1.3477876E3,2.5116302E2,1.4026086E3,7.341759E0,1.1373362E3,2.1045135E2,3.760972E1,2.135533E2,1.3959026E3,6.705954E0,9.6826105E2,1.690751E2,1.9954576E2,1.0905593E1,6.104511E1,1.525082E2,1.389388E3,6.514718E0,1.17665245E2,5.1409863E1,1.22273415E2,7.7272354E1,2.9962496E1,3.1082611E1,1.0537435E2,4.713385E1,1.3828705E3,6.517429E0,7.1314186E1,4.635106E1,6.162943E0,4.5246918E1,7.044104E1,5.1832375E1,9.118862E0,6.815349E1,1.082296E1,1.9139536E1,8.774118E0,2.2308493E1,6.241182E1,4.296253E1,4.04953E0,4.308432E1],"tree_param":{"num_deleted":"0","num_feature":"32","num_nodes":"49","size_leaf_vector":"1"}},{"base_weights":[2.5386335E-3,-7.370013E-2,1.0419936E0,5.398847E-1,7.3278286E-2,6.658341E-2,-7.77986E-3],"categories":[],"categories_nodes":[],"categories_segments":[],"categories_sizes":[],"default_left":[0,0,0,0,0,0,0],"id":34,"left_children":[1,-1,3,5,-1,-1,-1],"loss_changes":[3.1445415E3,0E0,2.9434814E0,4.349832E0,0E0,0E0,0E0],"parents":[2147483647,0,0,2,2,3,3],"right_children":[2,-1,4,6,-1,-1,-1],"split_conditions":[1.7546539E-1,-7.370013E-2,6.215557E-1,-3.0994747E0,7.3278286E-2,6.658341E-2,-7.77986E-3],"split_indices":[0,0,0,4,0,0,0],"split_type":[0,0,0,0,0,0,0],"sum_hessian":[2.8643916E3,1.4212899E3,1.4431018E3,1.4849776E1,1.4282521E3,8.817783E0,6.0319924E0],"tree_param":{"num_deleted":"0","num_feature":"32","num_nodes":"7","size_leaf_vector":"1"}},{"base_weights":[-2.9559035E-3,-7.343214E-2,1.0363988E0,4.031089E-1,7.296861E-2,6.517075E-2,-2.3158584E-2],"categories":[],"categories_nodes":[],"categories_segments":[],"categories_sizes":[],"default_left":[0,0,0,0,0,0,0],"id":35,"left_children":[1,-1,3,5,-1,-1,-1],"loss_changes":[2.915726E3,0E0,4.699707E0,5.839467E0,0E0,0E0,0E0],"parents":[2147483647,0,0,2,2,3,3],"right_children":[2,-1,4,6,-1,-1,-1],"split_conditions":[1.7546539E-1,-7.343214E-2,6.215557E-1,-3.0994747E0,7.296861E-2,6.517075E-2,-2.3158584E-2],"split_indices":[0,0,0,4,0,0,0],"split_type":[0,0,0,0,0,0,0],"sum_hessian":[2.6797625E3,1.335559E3,1.3442034E3,1.3276515E1,1.3309269E3,7.566031E0,5.7104845E0],"tree_param":{"num_deleted":"0","num_feature":"32","num_nodes":"7","size_leaf_vector":"1"}},{"base_weights":[-4.2881523E-3,-7.319192E-2,1.030517E0,3.051463E-1,7.264095E-2,6.4726174E-2,-3.707898E-2],"categories":[],"categories_nodes":[],"categories_segments":[],"categories_sizes":[],"default_left":[0,0,0,0,0,0,0],"id":36,"left_children":[1,-1,3,5,-1,-1,-1],"loss_changes":[2.7116165E3,0E0,6.2851562E0,7.647958E0,0E0,0E0,0E0],"parents":[2147483647,0,0,2,2,3,3],"right_children":[2,-1,4,6,-1,-1,-1],"split_conditions":[1.7546539E-1,-7.319192E-2,6.215557E-1,-3.0994747E0,7.264095E-2,6.4726174E-2,-3.707898E-2],"split_indices":[0,0,0,4,0,0,0],"split_type":[0,0,0,0,0,0,0],"sum_hessian":[2.5144558E3,1.2532831E3,1.2611727E3,1.2840274E1,1.2483324E3,7.3089485E0,5.531325E0],"tree_param":{"num_deleted":"0","num_feature":"32","num_nodes":"7","size_leaf_vector":"1"}},{"base_weights":[-4.3416787E-3,-7.295386E-2,1.0281984E0,3.9713916E-1,7.24294E-2,-1.2004688E-1,6.4947695E-2,-4.975045E-2,3.505899E-2],"categories":[],"categories_nodes":[],"categories_segments":[],"categories_sizes":[],"default_left":[0,0,0,0,0,0,0,0,0],"id":37,"left_children":[1,-1,3,5,-1,7,-1,-1,-1],"loss_changes":[2.522358E3,0E0,4.4344482E0,3.8621097E0,0E0,3.2188702E0,0E0,0E0,0E0],"parents":[2147483647,0,0,2,2,3,3,5,5],"right_children":[2,-1,4,6,-1,8,-1,-1,-1],"split_conditions":[1.7546539E-1,-7.295386E-2,6.215557E-1,4.0259836E-3,7.24294E-2,3.5535826E-3,6.4947695E-2,-4.975045E-2,3.505899E-2],"split_indices":[0,0,0,24,0,23,0,0,0],"split_type":[0,0,0,0,0,0,0,0,0],"sum_hessian":[2.3517625E3,1.1728572E3,1.1789052E3,1.2665697E1,1.1662395E3,6.806309E0,5.859388E0,3.4138825E0,3.3924267E0],"tree_param":{"num_deleted":"0","num_feature":"32","num_nodes":"9","size_leaf_vector":"1"}},{"base_weights":[-7.95661E-4,-7.273243E-2,1.0260701E0,4.481945E-1,7.223708E-2,6.399762E-2,-1.7571082E-2],"categories":[],"categories_nodes":[],"categories_segments":[],"categories_sizes":[],"default_left":[0,0,0,0,0,0,0],"id":38,"left_children":[1,-1,3,5,-1,-1,-1],"loss_changes":[2.3444795E3,0E0,3.2993164E0,4.4395742E0,0E0,0E0,0E0],"parents":[2147483647,0,0,2,2,3,3],"right_children":[2,-1,4,6,-1,-1,-1],"split_conditions":[1.7546539E-1,-7.273243E-2,6.215557E-1,-3.0994747E0,7.223708E-2,6.399762E-2,-1.7571082E-2],"split_indices":[0,0,0,4,0,0,0],"split_type":[0,0,0,0,0,0,0],"sum_hessian":[2.1970513E3,1.0924697E3,1.1045814E3,1.1919445E1,1.092662E3,6.967632E0,4.951813E0],"tree_param":{"num_deleted":"0","num_feature":"32","num_nodes":"7","size_leaf_vector":"1"}},{"base_weights":[2.2361882E-3,-7.2535425E-2,1.0272605E0,5.886666E-1,7.221142E-2,8.422894E-2,7.446193E-2,2.2356184E-2,-1.2204249E-2],"categories":[],"categories_nodes":[],"categories_segments":[],"categories_sizes":[],"default_left":[0,0,0,0,0,0,0,0,0],"id":39,"left_children":[1,-1,3,5,-1,7,-1,-1,-1],"loss_changes":[2.1883926E3,0E0,1.3581543E0,2.8931427E0,0E0,4.8875916E-1,0E0,0E0,0E0],"parents":[2147483647,0,0,2,2,3,3,5,5],"right_children":[2,-1,4,6,-1,8,-1,-1,-1],"split_conditions":[1.7546539E-1,-7.2535425E-2,6.215557E-1,4.0259836E-3,7.221142E-2,-2.0914818E-1,7.446193E-2,2.2356184E-2,-1.2204249E-2],"split_indices":[0,0,0,24,0,2,0,0,0],"split_type":[0,0,0,0,0,0,0,0,0],"sum_hessian":[2.0539033E3,1.0202614E3,1.033642E3,1.1446451E1,1.0221955E3,6.1226645E0,5.3237863E0,3.0834684E0,3.0391963E0],"tree_param":{"num_deleted":"0","num_feature":"32","num_nodes":"9","size_leaf_vector":"1"}},{"base_weights":[-3.7651672E-3,8.7000984E-1,-7.798703E-1,8.964616E-1,-6.690596E-2,-8.9054894E-1,-2.0305537E-1,9.067343E-1,-6.0448047E-2,-9.9044865E-1,-3.7740865E-1,7.01436E-2,-4.08737E-1,9.1685253E-1,-5.995441E-2,-7.2727196E-2,-7.119199E-1,-6.288636E-1,-1.1374772E-3,6.064141E-2,-5.983838E-1,9.2657447E-1,-5.9439782E-2,-7.9605323E-1,-1.5904213E-1,-6.9888616E-1,5.6037754E-2,6.51552E-2,-1.5074456E-1,-3.333163E-1,4.3226272E-1,-7.0147455E-1,-3.37772E-2,6.549574E-2,-5.818273E-2,-6.1877888E-2,-3.9653137E-2,5.8553606E-2,-4.0057812E-2,-2.1383967E-2,-5.9213925E-2,3.0558122E-2,-2.2917064E-2,-3.2219004E-2,1.5593497E-2,5.812056E-2,2.0667182E-2,-5.617452E-2,-8.761581E-3,6.428184E-2,-5.1656608E-2],"categories":[],"categories_nodes":[],"categories_segments":[],"categories_sizes":[],"default_left":[0,0,0,0,0,0,0,0,0,0,0,0,0,0,0,0,0,0,0,0,0,0,0,0,0,0,0,0,0,0,0,0,0,0,0,0,0,0,0,0,0,0,0,0,0,0,0,0,0,0,0],"id":40,"left_children":[1,3,5,7,-1,9,11,13,-1,15,17,-1,19,21,-1,-1,23,25,27,29,31,33,-1,35,37,39,-1,-1,41,43,45,47,49,-1,-1,-1,-1,-1,-1,-1,-1,-1,-1,-1,-1,-1,-1,-1,-1,-1,-1],"loss_changes":[1.3065828E3,4.4628845E1,6.496149E1,1.694458E1,0E0,4.349756E1,4.144797E1,1.6649475E1,0E0,8.931274E0,1.3347395E1,0E0,1.268881E1,1.5974487E1,0E0,0E0,4.959648E0,9.0234375E0,8.159188E0,6.265294E0,5.8741074E0,1.4825012E1,0E0,1.4097443E0,6.9335675E0,4.435219E0,0E0,0E0,5.373437E0,1.5751948E0,9.519849E-1,4.8848534E0,1.1870738E1,0E0,0E0,0E0,0E0,0E0,0E0,0E0,0E0,0E0,0E0,0E0,0E0,0E0,0E0,0E0,0E0,0E0,0E0],"parents":[2147483647,0,0,1,1,2,2,3,3,5,5,6,6,7,7,9,9,10,10,12,12,13,13,16,16,17,17,18,18,19,19,20,20,21,21,23,23,24,24,25,25,28,28,29,29,30,30,31,31,32,32],"right_children":[2,4,6,8,-1,10,12,14,-1,16,18,-1,20,22,-1,-1,24,26,28,30,32,34,-1,36,38,40,-1,-1,42,44,46,48,50,-1,-1,-1,-1,-1,-1,-1,-1,-1,-1,-1,-1,-1,-1,-1,-1,-1,-1],"split_conditions":[3.1992736E-1,1E0,4.0259836E-3,1E0,-6.690596E-2,3.5535826E-3,9.961959E-1,1E0,-6.0448047E-2,3.4901057E-3,2.8565028E-3,7.01436E-2,-1.0334841E0,1E0,-5.995441E-2,-7.2727196E-2,4.079607E-3,3.4901057E-3,9.9558985E-1,2.8565028E-3,4.5691696E-3,1E0,-5.9439782E-2,2.8565028E-3,9.9698615E-1,-8.9027184E-1,5.6037754E-2,6.51552E-2,-1.1766963E0,2.1601042E-3,9.9558985E-1,3.2709253E-3,9.9699205E-1,6.549574E-2,-5.818273E-2,-6.1877888E-2,-3.9653137E-2,5.8553606E-2,-4.0057812E-2,-2.1383967E-2,-5.9213925E-2,3.0558122E-2,-2.2917064E-2,-3.2219004E-2,1.5593497E-2,5.812056E-2,2.0667182E-2,-5.617452E-2,-8.761581E-3,6.428184E-2,-5.1656608E-2],"split_indices":[4,29,24,18,0,23,24,25,0,22,30,0,1,26,0,0,10,22,30,30,8,27,0,30,10,1,0,0,1,9,30,16,8,0,0,0,0,0,0,0,0,0,0,0,0,0,0,0,0,0,0],"split_type":[0,0,0,0,0,0,0,0,0,0,0,0,0,0,0,0,0,0,0,0,0,0,0,0,0,0,0,0,0,0,0,0,0,0,0,0,0,0,0,0,0,0,0,0,0,0,0,0,0,0,0],"sum_hessian":[1.9247114E3,9.053291E2,1.0193823E3,8.92902E2,1.24271E1,8.54817E2,1.645653E2,8.8820264E2,4.699372E0,7.147392E2,1.400778E2,2.3427816E1,1.4113748E2,8.83612E2,4.590604E0,6.0639355E2,1.08345634E2,8.356296E1,5.6514847E1,4.081069E1,1.003268E2,8.79247E2,4.3650002E0,9.365414E1,1.4691503E1,8.01478E1,3.4151611E0,7.0953345E0,4.9419514E1,1.9860037E1,2.0950655E1,8.463161E1,1.5695188E1,8.7519434E2,4.052682E0,6.565965E1,2.7994482E1,4.0088763E0,1.0682627E1,2.2642073E1,5.7505722E1,1.1086943E1,3.833257E1,1.6308939E1,3.5510967E0,4.069399E0,1.6881256E1,7.167547E1,1.2956142E1,6.5436506E0,9.151538E0],"tree_param":{"num_deleted":"0","num_feature":"32","num_nodes":"51","size_leaf_vector":"1"}},{"base_weights":[-1.0196364E-3,-7.224415E-2,1.0183783E0,6.333979E-1,7.201081E-2,6.8695165E-2,-3.5535422E-1,-5.3973738E-2,1.1613049E-2],"categories":[],"categories_nodes":[],"categories_segments":[],"categories_sizes":[],"default_left":[0,0,0,0,0,0,0,0,0],"id":41,"left_children":[1,-1,3,5,-1,-1,7,-1,-1],"loss_changes":[1.921919E3,0E0,3.0112305E0,9.524312E0,0E0,0E0,1.7913084E0,0E0,0E0],"parents":[2147483647,0,0,2,2,3,3,6,6],"right_children":[2,-1,4,6,-1,-1,8,-1,-1],"split_conditions":[1.7546539E-1,-7.224415E-2,7.861784E-1,-3.0994747E0,7.201081E-2,6.8695165E-2,2.8565028E-3,-5.3973738E-2,1.1613049E-2],"split_indices":[0,0,0,4,0,0,30,0,0],"split_type":[0,0,0,0,0,0,0,0,0],"sum_hessian":[1.8265884E3,9.081026E2,9.1848584E2,2.5669497E1,8.9281635E2,1.8992968E1,6.6765285E0,3.4477408E0,3.2287877E0],"tree_param":{"num_deleted":"0","num_feature":"32","num_nodes":"9","size_leaf_vector":"1"}},{"base_weights":[2.4762729E-3,-3.1653538E-1,4.6986505E-1,-5.4457945E-1,3.900246E-1,5.642375E-1,-7.1666926E-2,-4.3726596E-1,-7.215409E-2,4.8602554E-1,-6.7690626E-2,6.028304E-1,-6.794355E-2,-5.546001E-1,7.647404E-2,7.04822E-2,3.8155726E-1,6.393808E-1,-7.1252815E-2,-4.986449E-1,-7.297034E-2,6.805711E-2,-8.427058E-2,4.7500172E-1,-6.0054187E-2,6.7653626E-1,-6.736368E-2,-3.064296E-2,-7.178604E-2,-1.9400114E-3,-5.558671E-2,3.5748865E-2,-1.417861E-2,-1.1099502E-2,2.3736779E-2,4.9970083E-2,-6.71248E-2],"categories":[],"categories_nodes":[],"categories_segments":[],"categories_sizes":[],"default_left":[0,0,0,0,0,0,0,0,0,0,0,0,0,0,0,0,0,0,0,0,0,0,0,0,0,0,0,0,0,0,0,0,0,0,0,0,0],"id":42,"left_children":[1,3,5,7,9,11,-1,13,-1,15,-1,17,-1,19,21,-1,23,25,-1,27,-1,-1,29,31,33,35,-1,-1,-1,-1,-1,-1,-1,-1,-1,-1,-1],"loss_changes":[2.5426323E2,1.6351874E2,9.809067E1,3.9548965E1,3.2763447E1,3.916487E1,0E0,3.800393E1,0E0,1.2249142E1,0E0,3.832312E1,0E0,1.3477798E1,1.7068296E1,0E0,8.075233E0,3.7699615E1,0E0,1.4370308E1,0E0,0E0,4.030248E0,3.9986954E0,1.4277256E0,3.7857605E1,0E0,0E0,0E0,0E0,0E0,0E0,0E0,0E0,0E0,0E0,0E0],"parents":[2147483647,0,0,1,1,2,2,3,3,4,4,5,5,7,7,9,9,11,11,13,13,14,14,16,16,17,17,19,19,22,22,23,23,24,24,25,25],"right_children":[2,4,6,8,10,12,-1,14,-1,16,-1,18,-1,20,22,-1,24,26,-1,28,-1,-1,30,32,34,36,-1,-1,-1,-1,-1,-1,-1,-1,-1,-1,-1],"split_conditions":[-5.2510446E-1,3.5535826E-3,1E0,1E0,1E0,1E0,-7.1666926E-2,3.4901057E-3,-7.215409E-2,9.9658895E-1,-6.7690626E-2,1E0,-6.794355E-2,1E0,9.966078E-1,7.04822E-2,9.965838E-1,1E0,-7.1252815E-2,1E0,-7.297034E-2,6.805711E-2,9.959172E-1,9.9651253E-1,3.2709253E-3,1E0,-6.736368E-2,-3.064296E-2,-7.178604E-2,-1.9400114E-3,-5.558671E-2,3.5748865E-2,-1.417861E-2,-1.1099502E-2,2.3736779E-2,4.9970083E-2,-6.71248E-2],"split_indices":[3,23,29,29,29,21,0,22,0,23,0,26,0,20,22,0,28,19,0,18,0,0,13,11,16,20,0,0,0,0,0,0,0,0,0,0,0],"split_type":[0,0,0,0,0,0,0,0,0,0,0,0,0,0,0,0,0,0,0,0,0,0,0,0,0,0,0,0,0,0,0,0,0,0,0,0,0],"sum_hessian":[1.7032944E3,1.01252686E3,6.907676E2,7.656429E2,2.4688397E2,6.5030286E2,4.0464687E1,6.287609E2,1.3688193E2,2.3117197E2,1.5712004E1,6.349449E2,1.5357988E1,5.117921E2,1.1696883E2,3.7176632E1,1.9399533E2,6.215336E2,1.3411244E1,4.6094336E2,5.084876E1,1.7028257E1,9.994057E1,1.6005275E2,3.3942585E1,6.080072E2,1.3526454E1,4.1483353E2,4.6109837E1,9.352769E1,6.4128804E0,1.5227644E2,7.776305E0,2.7707214E1,6.2353697E0,5.949927E2,1.3014521E1],"tree_param":{"num_deleted":"0","num_feature":"32","num_nodes":"37","size_leaf_vector":"1"}},{"base_weights":[-1.660333E-3,-7.202192E-2,1.0112466E0,4.989753E-1,7.150015E-2,6.6361375E-2,-2.7483538E-2],"categories":[],"categories_nodes":[],"categories_segments":[],"categories_sizes":[],"default_left":[0,0,0,0,0,0,0],"id":43,"left_children":[1,-1,3,5,-1,-1,-1],"loss_changes":[1.7207655E3,0E0,3.8347168E0,7.6536903E0,0E0,0E0,0E0],"parents":[2147483647,0,0,2,2,3,3],"right_children":[2,-1,4,6,-1,-1,-1],"split_conditions":[1.7546539E-1,-7.202192E-2,6.9983864E-1,-3.0994747E0,7.150015E-2,6.6361375E-2,-2.7483538E-2],"split_indices":[0,0,0,4,0,0,0],"split_type":[0,0,0,0,0,0,0],"sum_hessian":[1.651815E3,8.201035E2,8.317114E2,1.718702E1,8.1452435E2,1.1388186E1,5.798833E0],"tree_param":{"num_deleted":"0","num_feature":"32","num_nodes":"7","size_leaf_vector":"1"}},{"base_weights":[1.6657795E-3,-7.186795E-2,1.0098586E0,5.708924E-1,7.158196E-2,6.777339E-2,-3.5349232E-1,-5.3153764E-2,1.0190171E-2],"categories":[],"categories_nodes":[],"categories_segments":[],"categories_sizes":[],"default_left":[0,0,0,0,0,0,0,0,0],"id":44,"left_children":[1,-1,3,5,-1,-1,7,-1,-1],"loss_changes":[1.5970709E3,0E0,3.7664795E0,9.231118E0,0E0,0E0,1.732538E0,0E0,0E0],"parents":[2147483647,0,0,2,2,3,3,6,6],"right_children":[2,-1,4,6,-1,-1,8,-1,-1],"split_conditions":[1.7546539E-1,-7.186795E-2,7.861784E-1,-3.0994747E0,7.158196E-2,6.777339E-2,2.8565028E-3,-5.3153764E-2,1.0190171E-2],"split_indices":[0,0,0,4,0,0,30,0,0],"split_type":[0,0,0,0,0,0,0,0,0],"sum_hessian":[1.5384207E3,7.6158746E2,7.768331E2,2.3203405E1,7.536297E2,1.6195305E1,7.0081015E0,3.5773954E0,3.4307058E0],"tree_param":{"num_deleted":"0","num_feature":"32","num_nodes":"9","size_leaf_vector":"1"}},{"base_weights":[-2.9689532E-3,-7.172844E-2,1.0046103E0,5.600176E-1,7.122273E-2,6.7397684E-2,-3.9661196E-1,-4.3410687E-3,-4.602666E-2],"categories":[],"categories_nodes":[],"categories_segments":[],"categories_sizes":[],"default_left":[0,0,0,0,0,0,0,0,0],"id":45,"left_children":[1,-1,3,5,-1,-1,7,-1,-1],"loss_changes":[1.4817123E3,0E0,3.5725708E0,9.087468E0,0E0,0E0,6.0545576E-1,0E0,0E0],"parents":[2147483647,0,0,2,2,3,3,6,6],"right_children":[2,-1,4,6,-1,-1,8,-1,-1],"split_conditions":[1.7546539E-1,-7.172844E-2,7.861784E-1,-3.0994747E0,7.122273E-2,6.7397684E-2,-8.8521844E-1,-4.3410687E-3,-4.602666E-2],"split_indices":[0,0,0,4,0,0,2,0,0],"split_type":[0,0,0,0,0,0,0,0,0],"sum_hessian":[1.4373008E3,7.136331E2,7.236676E2,2.15922E1,7.0207544E2,1.5189785E1,6.402414E0,3.347378E0,3.0550356E0],"tree_param":{"num_deleted":"0","num_feature":"32","num_nodes":"9","size_leaf_vector":"1"}},{"base_weights":[-4.727676E-3,-7.1593575E-2,9.971992E-1,4.7489923E-1,7.095215E-2,6.710558E-2,-5.4146314E-1,-6.392122E-2,-2.1761404E-3],"categories":[],"categories_nodes":[],"categories_segments":[],"categories_sizes":[],"default_left":[0,0,0,0,0,0,0,0,0],"id":46,"left_children":[1,-1,3,5,-1,-1,7,-1,-1],"loss_changes":[1.3745123E3,0E0,5.337097E0,1.1611649E1,0E0,0E0,1.4730318E0,0E0,0E0],"parents":[2147483647,0,0,2,2,3,3,6,6],"right_children":[2,-1,4,6,-1,-1,8,-1,-1],"split_conditions":[1.7546539E-1,-7.1593575E-2,7.861784E-1,-3.0994747E0,7.095215E-2,6.710558E-2,2.8565028E-3,-6.392122E-2,-2.1761404E-3],"split_indices":[0,0,0,4,0,0,30,0,0],"split_type":[0,0,0,0,0,0,0,0,0],"sum_hessian":[1.345562E3,6.674047E2,6.7815735E2,2.1561142E1,6.565962E2,1.4646647E1,6.9144945E0,3.544156E0,3.3703382E0],"tree_param":{"num_deleted":"0","num_feature":"32","num_nodes":"9","size_leaf_vector":"1"}},{"base_weights":[-4.1050734E-3,-7.147035E-2,9.986348E-1,5.757659E-1,7.0785016E-2,6.66585E-2,-1.8387321E-2],"categories":[],"categories_nodes":[],"categories_segments":[],"categories_sizes":[],"default_left":[0,0,0,0,0,0,0],"id":47,"left_children":[1,-1,3,5,-1,-1,-1],"loss_changes":[1.2857185E3,0E0,2.794983E0,6.7728777E0,0E0,0E0,0E0],"parents":[2147483647,0,0,2,2,3,3],"right_children":[2,-1,4,6,-1,-1,-1],"split_conditions":[1.7546539E-1,-7.147035E-2,7.861784E-1,-3.0994747E0,7.0785016E-2,6.66585E-2,-1.8387321E-2],"split_indices":[0,0,0,4,0,0,0],"split_type":[0,0,0,0,0,0,0],"sum_hessian":[1.2588965E3,6.25026E2,6.338704E2,1.9663038E1,6.142074E2,1.3475966E1,6.187072E0],"tree_param":{"num_deleted":"0","num_feature":"32","num_nodes":"7","size_leaf_vector":"1"}},{"base_weights":[2.8841395E-3,-2.3774421E-1,6.081161E-1,-6.804646E-1,5.512252E-1,6.765114E-1,-6.6451915E-2,-7.193896E-2,1.7481855E-1,6.225305E-1,-6.652396E-2,8.5959524E-1,5.0359505E-1,6.263905E-1,-1.6673587E-1,8.3307153E-1,4.1291088E-1,4.131975E-2,6.1784822E-2,6.966269E-2,3.920595E-1,-6.6464004E-4,6.902541E-1,-3.6372837E-2,-7.018027E-2,3.5966665E-2,6.021742E-2,3.659121E-1,6.515948E-2,4.3921113E-1,-1.2184701E-1,3.7774503E-2,5.7470154E-2,-7.45034E-3,2.3673126E-2,-1.2070316E-2,2.8823905E-2,3.317194E-2,-1.6525386E-2,-2.2572458E-2,9.775653E-3],"categories":[],"categories_nodes":[],"categories_segments":[],"categories_sizes":[],"default_left":[0,0,0,0,0,0,0,0,0,0,0,0,0,0,0,0,0,0,0,0,0,0,0,0,0,0,0,0,0,0,0,0,0,0,0,0,0,0,0,0,0],"id":48,"left_children":[1,3,5,7,9,11,-1,-1,13,15,-1,17,19,21,23,25,27,-1,-1,-1,29,-1,31,33,-1,-1,-1,35,-1,37,39,-1,-1,-1,-1,-1,-1,-1,-1,-1,-1],"loss_changes":[1.7124226E2,2.942481E2,3.627281E1,1.6036485E2,3.3029884E1,9.729599E0,0E0,0E0,2.4258177E1,1.2447372E1,0E0,4.3790436E-1,8.79385E0,2.753811E0,9.76496E0,8.041153E-1,3.2430248E0,0E0,0E0,0E0,3.4017315E0,0E0,7.6786995E-1,2.105255E0,0E0,0E0,0E0,3.4437351E0,0E0,3.08041E0,6.9529825E-1,0E0,0E0,0E0,0E0,0E0,0E0,0E0,0E0,0E0,0E0],"parents":[2147483647,0,0,1,1,2,2,3,3,4,4,5,5,8,8,9,9,11,11,12,12,13,13,14,14,15,15,16,16,20,20,22,22,23,23,27,27,29,29,30,30],"right_children":[2,4,6,8,10,12,-1,-1,14,16,-1,18,20,22,24,26,28,-1,-1,-1,30,-1,32,34,-1,-1,-1,36,-1,38,40,-1,-1,-1,-1,-1,-1,-1,-1,-1,-1],"split_conditions":[4.0259836E-3,3.5535826E-3,1E0,3.4901057E-3,1E0,-1.0334841E0,-6.6451915E-2,-7.193896E-2,-1.0334841E0,-8.9027184E-1,-6.652396E-2,-1.5956197E0,9.961959E-1,-1.5956197E0,1E0,-1.5956197E0,3.4901057E-3,4.131975E-2,6.1784822E-2,6.966269E-2,1.4912595E0,-6.6464004E-4,2.8565028E-3,2.3713969E-3,-7.018027E-2,3.5966665E-2,6.021742E-2,-1.4796995E0,6.515948E-2,9.9698615E-1,4.711162E-3,3.7774503E-2,5.7470154E-2,-7.45034E-3,2.3673126E-2,-1.2070316E-2,2.8823905E-2,3.317194E-2,-1.6525386E-2,-2.2572458E-2,9.775653E-3],"split_indices":[24,23,29,22,29,1,0,0,1,1,0,1,24,1,29,1,22,0,0,0,2,0,30,15,0,0,0,2,0,10,31,0,0,0,0,0,0,0,0,0,0],"split_type":[0,0,0,0,0,0,0,0,0,0,0,0,0,0,0,0,0,0,0,0,0,0,0,0,0,0,0,0,0,0,0,0,0,0,0,0,0,0,0,0,0],"sum_hessian":[1.1738312E3,8.403369E2,3.3349426E2,5.3837305E2,3.0196384E2,3.2000665E2,1.3487627E1,3.82771E2,1.5560205E2,2.8883334E2,1.3130491E1,1.535047E2,1.6650195E2,6.6649826E1,8.8952225E1,1.4261613E2,1.4621722E2,1.419783E1,1.3930687E2,2.9326145E1,1.3717581E2,6.160592E0,6.048923E1,7.785324E1,1.1098989E1,1.2749457E1,1.2986668E2,1.3561751E2,1.0599717E1,1.2578061E2,1.1395195E1,3.0491323E1,2.9997908E1,6.618866E1,1.1664582E1,1.042885E1,1.2518865E2,1.199213E2,5.8593054E0,6.3163157E0,5.0788794E0],"tree_param":{"num_deleted":"0","num_feature":"32","num_nodes":"41","size_leaf_vector":"1"}},{"base_weights":[-2.0024495E-3,-7.13093E-2,9.943694E-1,5.470207E-1,7.052479E-2,6.583096E-2,-2.0467864E-2],"categories":[],"categories_nodes":[],"categories_segments":[],"categories_sizes":[],"default_left":[0,0,0,0,0,0,0],"id":49,"left_children":[1,-1,3,5,-1,-1,-1],"loss_changes":[1.1406234E3,0E0,2.7884521E0,6.3515E0,0E0,0E0,0E0],"parents":[2147483647,0,0,2,2,3,3],"right_children":[2,-1,4,6,-1,-1,-1],"split_conditions":[1.7546539E-1,-7.13093E-2,7.861784E-1,-3.0994747E0,7.052479E-2,6.583096E-2,-2.0467864E-2],"split_indices":[0,0,0,4,0,0,0],"split_type":[0,0,0,0,0,0,0],"sum_hessian":[1.1239712E3,5.56299E2,5.676722E2,1.7400003E1,5.5027216E2,1.1765406E1,5.6345987E0],"tree_param":{"num_deleted":"0","num_feature":"32","num_nodes":"7","size_leaf_vector":"1"}},{"base_weights":[5.61874E-4,-7.1197614E-2,9.95508E-1,6.059101E-1,7.050318E-2,6.5457754E-2,-4.6502952E-3],"categories":[],"categories_nodes":[],"categories_segments":[],"categories_sizes":[],"default_left":[0,0,0,0,0,0,0],"id":50,"left_children":[1,-1,3,5,-1,-1,-1],"loss_changes":[1.0636273E3,0E0,1.8068848E0,4.0397396E0,0E0,0E0,0E0],"parents":[2147483647,0,0,2,2,3,3],"right_children":[2,-1,4,6,-1,-1,-1],"split_conditions":[1.7546539E-1,-7.1197614E-2,7.861784E-1,-3.0994747E0,7.050318E-2,6.5457754E-2,-4.6502952E-3],"split_indices":[0,0,0,4,0,0,0],"split_type":[0,0,0,0,0,0,0],"sum_hessian":[1.0484677E3,5.1830365E2,5.30164E2,1.697097E1,5.13193E2,1.1130363E1,5.8406076E0],"tree_param":{"num_deleted":"0","num_feature":"32","num_nodes":"7","size_leaf_vector":"1"}},{"base_weights":[3.3664769E-3,-7.1099676E-2,9.897986E-1,3.5757488E-1,7.037085E-2,6.2271386E-2,-2.3369337E-2],"categories":[],"categories_nodes":[],"categories_segments":[],"categories_sizes":[],"default_left":[0,0,0,0,0,0,0],"id":51,"left_children":[1,-1,3,5,-1,-1,-1],"loss_changes":[9.879068E2,0E0,4.5338745E0,5.2634506E0,0E0,0E0,0E0],"parents":[2147483647,0,0,2,2,3,3],"right_children":[2,-1,4,6,-1,-1,-1],"split_conditions":[1.7546539E-1,-7.1099676E-2,6.9983864E-1,-3.0994747E0,7.037085E-2,6.2271386E-2,-2.3369337E-2],"split_indices":[0,0,0,4,0,0,0],"split_type":[0,0,0,0,0,0,0],"sum_hessian":[9.8074786E2,4.8237744E2,4.9837042E2,1.2501396E1,4.8586902E2,6.903147E0,5.5982494E0],"tree_param":{"num_deleted":"0","num_feature":"32","num_nodes":"7","size_leaf_vector":"1"}},{"base_weights":[-5.063162E-3,-7.1003936E-2,9.823568E-1,4.5829844E-1,7.005738E-2,6.4759664E-2,-2.793703E-1,-4.518644E-2,1.4204808E-2],"categories":[],"categories_nodes":[],"categories_segments":[],"categories_sizes":[],"default_left":[0,0,0,0,0,0,0,0,0],"id":52,"left_children":[1,-1,3,5,-1,-1,7,-1,-1],"loss_changes":[9.2036084E2,0E0,4.058075E0,6.36464E0,0E0,0E0,1.4802171E0,0E0,0E0],"parents":[2147483647,0,0,2,2,3,3,6,6],"right_children":[2,-1,4,6,-1,-1,8,-1,-1],"split_conditions":[1.7546539E-1,-7.1003936E-2,7.861784E-1,-3.0994747E0,7.005738E-2,6.4759664E-2,-5.2510446E-1,-4.518644E-2,1.4204808E-2],"split_indices":[0,0,0,4,0,0,3,0,0],"split_type":[0,0,0,0,0,0,0,0,0],"sum_hessian":[9.215175E2,4.5570114E2,4.658164E2,1.673131E1,4.4908508E2,1.0091001E1,6.640309E0,3.5822778E0,3.0580308E0],"tree_param":{"num_deleted":"0","num_feature":"32","num_nodes":"9","size_leaf_vector":"1"}},{"base_weights":[-4.003509E-3,8.413759E-1,-7.535767E-1,8.652717E-1,-5.9374437E-2,-8.433566E-1,-2.9185727E-1,6.709562E-2,7.6007885E-1,-9.1669935E-1,-6.647172E-1,6.5949515E-2,-4.6546227E-1,6.4908284E-1,6.2457036E-2,-7.001572E-2,-7.724823E-1,6.0678534E-2,-7.539122E-1,-6.7247754E-1,-1.561623E-1,7.1379197E-1,3.9790788E-1,-8.2586217E-1,-3.8159078E-1,-4.537316E-1,-8.410049E-1,-6.2106706E-2,-3.932915E-1,5.6988217E-2,-3.0701578E-1,5.20372E-2,2.0792158E-2,1.818676E-2,5.0367467E-2,-6.0307726E-2,-3.7843436E-2,-2.67766E-3,-3.3145253E-2,-3.9138187E-2,9.984464E-3,-6.1109267E-2,-3.7780453E-2,3.245471E-3,-4.2477928E-2,-3.021774E-2,1.5377826E-2],"categories":[],"categories_nodes":[],"categories_segments":[],"categories_sizes":[],"default_left":[0,0,0,0,0,0,0,0,0,0,0,0,0,0,0,0,0,0,0,0,0,0,0,0,0,0,0,0,0,0,0,0,0,0,0,0,0,0,0,0,0,0,0,0,0,0,0],"id":53,"left_children":[1,3,5,7,-1,9,11,-1,13,15,17,-1,19,21,-1,-1,23,-1,25,27,29,31,33,35,37,39,41,-1,43,-1,45,-1,-1,-1,-1,-1,-1,-1,-1,-1,-1,-1,-1,-1,-1,-1,-1],"loss_changes":[5.4535535E2,1.7063782E1,1.8663025E1,3.1879883E0,0E0,4.3872986E0,1.667445E1,0E0,2.2442093E0,2.452362E0,1.6314224E1,0E0,4.1920424E0,1.4758415E0,0E0,0E0,1.8253174E0,0E0,2.4645615E0,2.0434017E0,4.379068E0,8.256302E-1,8.985958E-1,4.439926E-1,4.2950606E-1,1.7549238E0,3.3069992E-1,0E0,1.8254385E0,0E0,1.7455986E0,0E0,0E0,0E0,0E0,0E0,0E0,0E0,0E0,0E0,0E0,0E0,0E0,0E0,0E0,0E0,0E0],"parents":[2147483647,0,0,1,1,2,2,3,3,5,5,6,6,8,8,9,9,10,10,12,12,13,13,16,16,18,18,19,19,20,20,21,21,22,22,23,23,24,24,25,25,26,26,28,28,30,30],"right_children":[2,4,6,8,-1,10,12,-1,14,16,18,-1,20,22,-1,-1,24,-1,26,28,30,32,34,36,38,40,42,-1,44,-1,46,-1,-1,-1,-1,-1,-1,-1,-1,-1,-1,-1,-1,-1,-1,-1,-1],"split_conditions":[2.8640142E-1,1E0,3.5535826E-3,-1.0334841E0,-5.9374437E-2,2.8565028E-3,9.9658895E-1,6.709562E-2,3.5535826E-3,4.711162E-3,9.9558985E-1,6.5949515E-2,2.8565028E-3,9.965838E-1,6.2457036E-2,-7.001572E-2,3.2709253E-3,6.0678534E-2,-1.0334841E0,4.711162E-3,9.921494E-1,1.4912595E0,2.3713969E-3,4.5691696E-3,-1.0334841E0,3.081E-3,2.1601042E-3,-6.2106706E-2,-8.9027184E-1,5.6988217E-2,3.8832643E-3,5.20372E-2,2.0792158E-2,1.818676E-2,5.0367467E-2,-6.0307726E-2,-3.7843436E-2,-2.67766E-3,-3.3145253E-2,-3.9138187E-2,9.984464E-3,-6.1109267E-2,-3.7780453E-2,3.245471E-3,-4.2477928E-2,-3.021774E-2,1.5377826E-2],"split_indices":[4,29,23,1,0,30,23,0,23,31,30,0,30,28,0,0,16,0,1,31,30,2,15,8,1,11,9,0,1,0,17,0,0,0,0,0,0,0,0,0,0,0,0,0,0,0,0],"split_type":[0,0,0,0,0,0,0,0,0,0,0,0,0,0,0,0,0,0,0,0,0,0,0,0,0,0,0,0,0,0,0,0,0,0,0,0,0,0,0,0,0,0,0,0,0,0,0],"sum_hessian":[8.586243E2,4.034665E2,4.551578E2,3.9832092E2,5.145582E0,3.8036957E2,7.4788246E1,2.0685977E2,1.9146114E2,2.6672894E2,1.1364063E2,8.677961E0,6.611028E1,1.0727736E2,8.4183784E1,1.6514656E2,1.01582375E2,5.7742066E0,1.07866425E2,3.8900135E1,2.7210152E1,8.383698E1,2.3440374E1,8.839803E1,1.3184344E1,2.565424E1,8.221218E1,2.0755907E1,1.8144228E1,3.0696456E0,2.4140505E1,7.754625E1,6.2907352E0,1.766385E1,5.7765226E0,7.677498E1,1.1623054E1,3.0832193E0,1.0101125E1,2.1854706E1,3.7995336E0,7.260663E1,9.605558E0,6.187495E0,1.1956732E1,1.9666075E1,4.4744315E0],"tree_param":{"num_deleted":"0","num_feature":"32","num_nodes":"47","size_leaf_vector":"1"}},{"base_weights":[-2.9304544E-3,-7.087397E-2,9.7935617E-1,2.68784E-1,6.9828086E-2,6.0372543E-2,-2.9677767E-2],"categories":[],"categories_nodes":[],"categories_segments":[],"categories_sizes":[],"default_left":[0,0,0,0,0,0,0],"id":54,"left_children":[1,-1,3,5,-1,-1,-1],"loss_changes":[8.1073615E2,0E0,5.0871277E0,5.181841E0,0E0,0E0,0E0],"parents":[2147483647,0,0,2,2,3,3],"right_children":[2,-1,4,6,-1,-1,-1],"split_conditions":[1.7546539E-1,-7.087397E-2,6.9983864E-1,-3.0994747E0,6.9828086E-2,6.0372543E-2,-2.9677767E-2],"split_indices":[0,0,0,4,0,0,0],"split_type":[0,0,0,0,0,0,0],"sum_hessian":[8.155446E2,4.0217477E2,4.1336984E2,1.0710411E1,4.0265942E2,5.6356974E0,5.074714E0],"tree_param":{"num_deleted":"0","num_feature":"32","num_nodes":"7","size_leaf_vector":"1"}},{"base_weights":[2.5002512E-3,-7.079E-2,9.848522E-1,3.927724E-1,7.004229E-2,-1.285508E-2,6.588338E-2],"categories":[],"categories_nodes":[],"categories_segments":[],"categories_sizes":[],"default_left":[0,0,0,0,0,0,0],"id":55,"left_children":[1,-1,3,5,-1,-1,-1],"loss_changes":[7.61251E2,0E0,3.2276306E0,3.8735304E0,0E0,0E0,0E0],"parents":[2147483647,0,0,2,2,3,3],"right_children":[2,-1,4,6,-1,-1,-1],"split_conditions":[1.7546539E-1,-7.079E-2,6.9983864E-1,4.0259836E-3,7.004229E-2,-1.285508E-2,6.588338E-2],"split_indices":[0,0,0,24,0,0,0],"split_type":[0,0,0,0,0,0,0],"sum_hessian":[7.6238904E2,3.7517722E2,3.8721182E2,1.07066765E1,3.7650516E2,5.544383E0,5.1622934E0],"tree_param":{"num_deleted":"0","num_feature":"32","num_nodes":"7","size_leaf_vector":"1"}},{"base_weights":[-3.683751E-3,-7.071145E-2,9.7408766E-1,3.914529E-1,6.969613E-2,-2.3091617E-1,6.914015E-2,-8.885564E-2,4.611771E-2],"categories":[],"categories_nodes":[],"categories_segments":[],"categories_sizes":[],"default_left":[0,0,0,0,0,0,0,0,0],"id":56,"left_children":[1,-1,3,5,-1,7,-1,-1,-1],"loss_changes":[7.034533E2,0E0,4.167206E0,5.643363E0,0E0,8.182208E0,0E0,0E0,0E0],"parents":[2147483647,0,0,2,2,3,3,5,5],"right_children":[2,-1,4,6,-1,8,-1,-1,-1],"split_conditions":[1.7546539E-1,-7.071145E-2,7.861784E-1,4.0259836E-3,6.969613E-2,2.5021128E-2,6.914015E-2,-8.885564E-2,4.611771E-2],"split_indices":[0,0,0,24,0,23,0,0,0],"split_type":[0,0,0,0,0,0,0,0,0],"sum_hessian":[7.128139E2,3.512341E2,3.615798E2,1.3592676E1,3.4798712E2,6.950548E0,6.642128E0,3.0103657E0,3.9401824E0],"tree_param":{"num_deleted":"0","num_feature":"32","num_nodes":"9","size_leaf_vector":"1"}},{"base_weights":[3.800816E-3,-2.3015845E-1,5.8139604E-1,-6.6046476E-1,5.1233107E-1,6.4326864E-1,-6.2165692E-2,-7.147908E-2,1.6379263E-1,5.795623E-1,-6.271184E-2,4.5985928E-1,5.7151664E-2,2.832347E-1,-7.7201985E-2,3.7529832E-1,7.893491E-1,6.619894E-2,3.5585746E-1,6.66965E-1,-2.4034351E-2,4.5811555E-1,-2.795125E-2,2.9925369E-2,5.737891E-2,4.5081002E-1,1.0573874E-3,7.3779994E-3,5.0376028E-2,4.935264E-3,-2.0067181E-2,3.4481812E-2,-8.446163E-3,-1.8415518E-2,3.7036769E-3,3.357546E-2,-5.5418676E-3,-7.1528344E-3,2.5670452E-2],"categories":[],"categories_nodes":[],"categories_segments":[],"categories_sizes":[],"default_left":[0,0,0,0,0,0,0,0,0,0,0,0,0,0,0,0,0,0,0,0,0,0,0,0,0,0,0,0,0,0,0,0,0,0,0,0,0,0,0],"id":57,"left_children":[1,3,5,7,9,11,-1,-1,13,15,-1,17,-1,19,-1,21,23,-1,25,27,29,31,33,-1,-1,35,37,-1,-1,-1,-1,-1,-1,-1,-1,-1,-1,-1,-1],"loss_changes":[9.020873E1,1.5213753E2,1.8068306E1,8.971739E1,1.7076809E1,5.5086594E0,0E0,0E0,1.4314692E1,6.8825226E0,0E0,4.3250694E0,0E0,1.0081945E1,0E0,2.9111195E0,5.472183E-1,0E0,2.6135902E0,1.0484867E0,1.2213067E0,1.4974899E0,3.129756E-1,0E0,0E0,9.7352123E-1,6.9374514E-1,0E0,0E0,0E0,0E0,0E0,0E0,0E0,0E0,0E0,0E0,0E0,0E0],"parents":[2147483647,0,0,1,1,2,2,3,3,4,4,5,5,8,8,9,9,11,11,13,13,15,15,16,16,18,18,19,19,20,20,21,21,22,22,25,25,26,26],"right_children":[2,4,6,8,10,12,-1,-1,14,16,-1,18,-1,20,-1,22,24,-1,26,28,30,32,34,-1,-1,36,38,-1,-1,-1,-1,-1,-1,-1,-1,-1,-1,-1,-1],"split_conditions":[4.0259836E-3,3.5535826E-3,1E0,3.4901057E-3,1E0,-5.2510446E-1,-6.2165692E-2,-7.147908E-2,1E0,-5.2510446E-1,-6.271184E-2,9.961959E-1,5.7151664E-2,-1.0334841E0,-7.7201985E-2,9.965838E-1,-1.5956197E0,6.619894E-2,9.965838E-1,-1.5956197E0,9.918289E-1,9.8881686E-1,-3.02229E-1,2.9925369E-2,5.737891E-2,9.955823E-1,2.3713969E-3,7.3779994E-3,5.0376028E-2,4.935264E-3,-2.0067181E-2,3.4481812E-2,-8.446163E-3,-1.8415518E-2,3.7036769E-3,3.357546E-2,-5.5418676E-3,-7.1528344E-3,2.5670452E-2],"split_indices":[24,23,29,22,29,3,0,0,29,3,0,24,0,1,0,28,1,0,28,1,28,14,1,0,0,14,15,0,0,0,0,0,0,0,0,0,0,0,0],"split_type":[0,0,0,0,0,0,0,0,0,0,0,0,0,0,0,0,0,0,0,0,0,0,0,0,0,0,0,0,0,0,0,0,0,0,0,0,0,0,0],"sum_hessian":[6.6556116E2,4.7411774E2,1.914434E2,3.0023083E2,1.738869E2,1.8424786E2,7.1955414E0,2.0868086E2,9.154998E1,1.6652507E2,7.3618264E0,9.125742E1,9.299045E1,8.437061E1,7.1793737E0,8.578622E1,8.073886E1,1.4663662E1,7.659376E1,3.6996822E1,4.737379E1,7.105687E1,1.47293415E1,7.4153438E0,7.332352E1,6.0209686E1,1.6384075E1,3.431051E0,3.356577E1,3.5372784E1,1.2001007E1,6.7202065E1,3.854809E0,3.1925533E0,1.1536789E1,5.719246E1,3.0172253E0,1.3338626E1,3.0454502E0],"tree_param":{"num_deleted":"0","num_feature":"32","num_nodes":"39","size_leaf_vector":"1"}},{"base_weights":[-8.7887095E-4,-7.061102E-2,9.733164E-1,4.173885E-1,6.9690116E-2,6.219349E-2,-1.2932357E-2],"categories":[],"categories_nodes":[],"categories_segments":[],"categories_sizes":[],"default_left":[0,0,0,0,0,0,0],"id":58,"left_children":[1,-1,3,5,-1,-1,-1],"loss_changes":[6.3015625E2,0E0,3.6224976E0,4.2161255E0,0E0,0E0,0E0],"parents":[2147483647,0,0,2,2,3,3],"right_children":[2,-1,4,6,-1,-1,-1],"split_conditions":[1.7546539E-1,-7.061102E-2,7.861784E-1,-3.0994747E0,6.9690116E-2,6.219349E-2,-1.2932357E-2],"split_indices":[0,0,0,4,0,0,0],"split_type":[0,0,0,0,0,0,0],"sum_hessian":[6.398099E2,3.144556E2,3.2535428E2,1.3284619E1,3.1206964E2,7.1865654E0,6.098054E0],"tree_param":{"num_deleted":"0","num_feature":"32","num_nodes":"7","size_leaf_vector":"1"}},{"base_weights":[4.3733115E-3,-7.054039E-2,9.845048E-1,4.1803613E-1,7.004808E-2,-1.22527955E-2,6.647062E-2],"categories":[],"categories_nodes":[],"categories_segments":[],"categories_sizes":[],"default_left":[0,0,0,0,0,0,0],"id":59,"left_children":[1,-1,3,5,-1,-1,-1],"loss_changes":[5.957765E2,0E0,2.378479E0,3.3790016E0,0E0,0E0,0E0],"parents":[2147483647,0,0,2,2,3,3],"right_children":[2,-1,4,6,-1,-1,-1],"split_conditions":[1.7546539E-1,-7.054039E-2,6.9983864E-1,4.0259836E-3,7.004808E-2,-1.22527955E-2,6.647062E-2],"split_indices":[0,0,0,24,0,0,0],"split_type":[0,0,0,0,0,0,0],"sum_hessian":[5.9859045E2,2.944797E2,3.0411072E2,9.19136E0,2.9491937E2,4.6612344E0,4.530126E0],"tree_param":{"num_deleted":"0","num_feature":"32","num_nodes":"7","size_leaf_vector":"1"}},{"base_weights":[-6.1771687E-4,-2.3291871E-1,5.6642616E-1,-6.600477E-1,4.896273E-1,6.277431E-1,-6.0721073E-2,-7.1904235E-2,1.4322445E-1,5.5513716E-1,-6.120896E-2,5.7075676E-2,4.5853233E-1,2.587434E-1,-7.851136E-2,3.403802E-1,7.7838296E-1,6.649386E-2,3.54237E-1,6.288313E-1,-3.3909697E-2,4.1604614E-1,-1.7557668E-2,3.0160073E-2,5.6530144E-2,4.363773E-1,4.8420027E-2,5.5135414E-3,4.775281E-2,-1.1912515E-2,1.0906559E-2,3.2070205E-2,-1.8392164E-2,-1.5095408E-2,4.083923E-3,3.2572147E-2,-3.7836647E-3,-5.8036135E-3,1.5215165E-2],"categories":[],"categories_nodes":[],"categories_segments":[],"categories_sizes":[],"default_left":[0,0,0,0,0,0,0,0,0,0,0,0,0,0,0,0,0,0,0,0,0,0,0,0,0,0,0,0,0,0,0,0,0,0,0,0,0,0,0],"id":60,"left_children":[1,3,5,7,9,11,-1,-1,13,15,-1,-1,17,19,-1,21,23,-1,25,27,29,31,33,-1,-1,35,37,-1,-1,-1,-1,-1,-1,-1,-1,-1,-1,-1,-1],"loss_changes":[7.3691925E1,1.2280092E2,1.4838741E1,7.3831726E1,1.3711723E1,4.59449E0,0E0,0E0,1.1869601E1,6.5355377E0,0E0,0E0,3.9975758E0,7.9744706E0,0E0,2.013483E0,3.4967804E-1,0E0,1.7713537E0,8.993664E-1,1.1111461E0,1.868928E0,2.2135209E-1,0E0,0E0,8.216982E-1,3.7817407E-1,0E0,0E0,0E0,0E0,0E0,0E0,0E0,0E0,0E0,0E0,0E0,0E0],"parents":[2147483647,0,0,1,1,2,2,3,3,4,4,5,5,8,8,9,9,12,12,13,13,15,15,16,16,18,18,19,19,20,20,21,21,22,22,25,25,26,26],"right_children":[2,4,6,8,10,12,-1,-1,14,16,-1,-1,18,20,-1,22,24,-1,26,28,30,32,34,-1,-1,36,38,-1,-1,-1,-1,-1,-1,-1,-1,-1,-1,-1,-1],"split_conditions":[4.0259836E-3,3.5535826E-3,1E0,3.4901057E-3,1E0,-1.0334841E0,-6.0721073E-2,-7.1904235E-2,1E0,-5.2510446E-1,-6.120896E-2,5.7075676E-2,9.961959E-1,-1.0334841E0,-7.851136E-2,9.965838E-1,-1.5956197E0,6.649386E-2,9.965838E-1,-1.5956197E0,4.711162E-3,9.8881686E-1,-2.608389E-1,3.0160073E-2,5.6530144E-2,9.9207485E-1,7.1614325E-1,5.5135414E-3,4.775281E-2,-1.1912515E-2,1.0906559E-2,3.2070205E-2,-1.8392164E-2,-1.5095408E-2,4.083923E-3,3.2572147E-2,-3.7836647E-3,-5.8036135E-3,1.5215165E-2],"split_indices":[24,23,29,22,29,1,0,0,29,3,0,0,24,1,0,28,1,0,28,1,31,14,1,0,0,15,1,0,0,0,0,0,0,0,0,0,0,0,0],"split_type":[0,0,0,0,0,0,0,0,0,0,0,0,0,0,0,0,0,0,0,0,0,0,0,0,0,0,0,0,0,0,0,0,0,0,0,0,0,0,0],"sum_hessian":[5.5743665E2,3.9585565E2,1.6158102E2,2.4884113E2,1.4701453E2,1.554938E2,6.08722E0,1.7058995E2,7.825117E1,1.4084335E2,6.171169E0,7.192432E1,8.3569496E1,7.243126E1,5.8199105E0,7.307331E1,6.777004E1,1.3212386E1,7.035711E1,3.1476933E1,4.0954327E1,6.0187656E1,1.2885655E1,6.47251E0,6.1297535E1,5.512421E1,1.5232898E1,3.002002E0,2.847493E1,2.3894524E1,1.7059803E1,5.69788E1,3.2088528E0,3.0594668E0,9.826189E0,5.210106E1,3.0231514E0,8.856976E0,6.375923E0],"tree_param":{"num_deleted":"0","num_feature":"32","num_nodes":"39","size_leaf_vector":"1"}},{"base_weights":[-2.6923665E-3,-7.0445694E-2,9.598529E-1,3.7938267E-1,6.881219E-2,-1.6721109E-2,7.143185E-2],"categories":[],"categories_nodes":[],"categories_segments":[],"categories_sizes":[],"default_left":[0,0,0,0,0,0,0],"id":61,"left_children":[1,-1,3,5,-1,-1,-1],"loss_changes":[5.1838116E2,0E0,3.312271E0,5.0576496E0,0E0,0E0,0E0],"parents":[2147483647,0,0,2,2,3,3],"right_children":[2,-1,4,6,-1,-1,-1],"split_conditions":[1.7546539E-1,-7.0445694E-2,7.861784E-1,4.0259836E-3,6.881219E-2,-1.6721109E-2,7.143185E-2],"split_indices":[0,0,0,24,0,0,0],"split_type":[0,0,0,0,0,0,0],"sum_hessian":[5.345809E2,2.6167694E2,2.729039E2,1.11456585E1,2.6175824E2,5.9931746E0,5.1524835E0],"tree_param":{"num_deleted":"0","num_feature":"32","num_nodes":"7","size_leaf_vector":"1"}},{"base_weights":[-1.3744095E-3,-7.038338E-2,9.6224886E-1,4.2789635E-1,6.891909E-2,-7.930775E-3,6.657992E-2],"categories":[],"categories_nodes":[],"categories_segments":[],"categories_sizes":[],"default_left":[0,0,0,0,0,0,0],"id":62,"left_children":[1,-1,3,5,-1,-1,-1],"loss_changes":[4.853712E2,0E0,2.6302795E0,3.513709E0,0E0,0E0,0E0],"parents":[2147483647,0,0,2,2,3,3],"right_children":[2,-1,4,6,-1,-1,-1],"split_conditions":[1.7546539E-1,-7.038338E-2,7.861784E-1,4.0259836E-3,6.891909E-2,-7.930775E-3,6.657992E-2],"split_indices":[0,0,0,24,0,0,0],"split_type":[0,0,0,0,0,0,0],"sum_hessian":[4.9963605E2,2.4465761E2,2.5497844E2,1.1027634E1,2.439508E2,5.805979E0,5.221655E0],"tree_param":{"num_deleted":"0","num_feature":"32","num_nodes":"7","size_leaf_vector":"1"}},{"base_weights":[1.5921756E-3,-7.031611E-2,9.5715857E-1,3.6944175E-1,6.876999E-2,6.0183447E-2,-1.8048355E-2],"categories":[],"categories_nodes":[],"categories_segments":[],"categories_sizes":[],"default_left":[0,0,0,0,0,0,0],"id":63,"left_children":[1,-1,3,5,-1,-1,-1],"loss_changes":[4.520101E2,0E0,3.2182465E0,3.771995E0,0E0,0E0,0E0],"parents":[2147483647,0,0,2,2,3,3],"right_children":[2,-1,4,6,-1,-1,-1],"split_conditions":[1.7546539E-1,-7.031611E-2,7.861784E-1,-3.0994747E0,6.876999E-2,6.0183447E-2,-1.8048355E-2],"split_indices":[0,0,0,4,0,0,0],"split_type":[0,0,0,0,0,0,0],"sum_hessian":[4.6815665E2,2.2802246E2,2.401342E2,1.0543247E1,2.2959094E2,5.709599E0,4.833648E0],"tree_param":{"num_deleted":"0","num_feature":"32","num_nodes":"7","size_leaf_vector":"1"}},{"base_weights":[-7.934822E-3,-7.025569E-2,9.481228E-1,3.5548472E-1,9.752911E-1,5.991917E-1,-1.6977599E-2,7.496061E-1,6.982216E-2,1.5724067E-2,6.034666E-2,6.287383E-2,1.1116683E-2],"categories":[],"categories_nodes":[],"categories_segments":[],"categories_sizes":[],"default_left":[0,0,0,0,0,0,0,0,0,0,0,0,0],"id":64,"left_children":[1,-1,3,5,7,9,-1,11,-1,-1,-1,-1,-1],"loss_changes":[4.20128E2,0E0,3.278473E0,1.813018E0,3.2650757E-1,6.352861E-1,0E0,1.8965054E0,0E0,0E0,0E0,0E0,0E0],"parents":[2147483647,0,0,2,2,3,3,4,4,5,5,7,7],"right_children":[2,-1,4,6,8,10,-1,12,-1,-1,-1,-1,-1],"split_conditions":[1.7546539E-1,-7.025569E-2,7.861784E-1,1.1221396E-1,1.4630504E0,4.0259836E-3,-1.6977599E-2,2.5542623E-1,6.982216E-2,1.5724067E-2,6.034666E-2,6.287383E-2,1.1116683E-2],"split_indices":[0,0,0,1,0,24,0,1,0,0,0,0,0],"split_type":[0,0,0,0,0,0,0,0,0,0,0,0,0],"sum_hessian":[4.3932816E2,2.151761E2,2.2415207E2,1.044276E1,2.137093E2,7.4178624E0,3.0248976E0,2.2228271E1,1.9148103E2,3.8240716E0,3.5937908E0,1.7345402E1,4.88287E0],"tree_param":{"num_deleted":"0","num_feature":"32","num_nodes":"13","size_leaf_vector":"1"}},{"base_weights":[-4.15399E-3,-7.019319E-2,9.4460756E-1,2.5976172E-1,6.876696E-2,5.9529826E-2,-3.0607194E-1,4.6258708E-4,-3.7989657E-2],"categories":[],"categories_nodes":[],"categories_segments":[],"categories_sizes":[],"default_left":[0,0,0,0,0,0,0,0,0],"id":65,"left_children":[1,-1,3,5,-1,-1,7,-1,-1],"loss_changes":[3.9104855E2,0E0,5.2207336E0,4.412777E0,0E0,0E0,5.275208E-1,0E0,0E0],"parents":[2147483647,0,0,2,2,3,3,6,6],"right_children":[2,-1,4,6,-1,-1,8,-1,-1],"split_conditions":[1.7546539E-1,-7.019319E-2,7.861784E-1,-3.0994747E0,6.876696E-2,5.9529826E-2,-7.059755E-1,4.6258708E-4,-3.7989657E-2],"split_indices":[0,0,0,4,0,0,1,0,0],"split_type":[0,0,0,0,0,0,0,0,0],"sum_hessian":[4.1074307E2,2.0008717E2,2.1065588E2,1.1424489E1,1.992314E2,5.3435183E0,6.080971E0,3.0383406E0,3.0426304E0],"tree_param":{"num_deleted":"0","num_feature":"32","num_nodes":"9","size_leaf_vector":"1"}},{"base_weights":[-7.0296503E-3,8.166542E-1,-7.362316E-1,6.460822E-2,7.026996E-1,-8.6227036E-1,-1.9224253E-1,5.846576E-1,6.0568996E-2,-9.7389823E-1,-4.2824304E-1,5.83887E-2,-3.5175312E-1,1.4767453E-1,5.7927612E-2,-7.287443E-2,-6.5833235E-1,-6.1441445E-1,-1.5629177E-1,-5.322781E-1,-5.6035817E-2,-6.122086E-2,4.6279423E-2,-7.428327E-1,-6.453222E-3,-5.7023257E-2,-3.4633285E-1,1.7926337E-2,-3.396888E-1,-5.468749E-2,-2.2933301E-1,1.5596169E-1,-3.149946E-2,-6.0485497E-2,-2.8936343E-2,-6.5497276E-3,-3.1558763E-2,-4.274734E-2,-3.4905619E-3,-2.7204214E-3,-2.069872E-2,1.7251587E-2,6.058771E-4],"categories":[],"categories_nodes":[],"categories_segments":[],"categories_sizes":[],"default_left":[0,0,0,0,0,0,0,0,0,0,0,0,0,0,0,0,0,0,0,0,0,0,0,0,0,0,0,0,0,0,0,0,0,0,0,0,0,0,0,0,0,0,0],"id":66,"left_children":[1,3,5,-1,7,9,11,13,-1,15,17,-1,19,21,-1,-1,23,25,27,29,31,-1,-1,33,-1,-1,35,-1,37,-1,39,41,-1,-1,-1,-1,-1,-1,-1,-1,-1,-1,-1],"loss_changes":[2.317019E2,1.546196E0,1.3863197E1,0E0,1.2524414E0,7.6175995E0,6.8054614E0,5.8389874E0,0E0,2.0938187E0,1.7119937E0,0E0,1.8455424E0,1.174921E1,0E0,0E0,1.1624765E0,8.373132E-1,1.2859695E0,1.4572225E0,1.2756704E0,0E0,0E0,5.3149605E-1,0E0,0E0,2.3931932E-1,0E0,8.651277E-1,0E0,1.3010967E-1,1.3285281E-1,0E0,0E0,0E0,0E0,0E0,0E0,0E0,0E0,0E0,0E0,0E0],"parents":[2147483647,0,0,1,1,2,2,4,4,5,5,6,6,7,7,9,9,10,10,12,12,13,13,16,16,17,17,18,18,19,19,20,20,23,23,26,26,28,28,30,30,31,31],"right_children":[2,4,6,-1,8,10,12,14,-1,16,18,-1,20,22,-1,-1,24,26,28,30,32,-1,-1,34,-1,-1,36,-1,38,-1,40,42,-1,-1,-1,-1,-1,-1,-1,-1,-1,-1,-1],"split_conditions":[3.1992736E-1,-1.0334841E0,4.0259836E-3,6.460822E-2,4.0259836E-3,3.5535826E-3,9.961959E-1,3.5535826E-3,6.0568996E-2,3.4901057E-3,2.8565028E-3,5.83887E-2,2.8565028E-3,3.4901057E-3,5.7927612E-2,-7.287443E-2,4.079607E-3,4.711162E-3,-1.0564604E0,4.711162E-3,1.1221396E-1,-6.122086E-2,4.6279423E-2,4.711162E-3,-6.453222E-3,-5.7023257E-2,-8.9027184E-1,1.7926337E-2,4.413387E-1,-5.468749E-2,-5.120109E-1,-1.0334841E0,-3.149946E-2,-6.0485497E-2,-2.8936343E-2,-6.5497276E-3,-3.1558763E-2,-4.274734E-2,-3.4905619E-3,-2.7204214E-3,-2.069872E-2,1.7251587E-2,6.058771E-4],"split_indices":[4,1,24,0,24,23,24,23,0,22,30,0,30,22,0,0,10,31,1,31,1,0,0,31,0,0,1,0,1,0,2,1,0,0,0,0,0,0,0,0,0,0,0],"split_type":[0,0,0,0,0,0,0,0,0,0,0,0,0,0,0,0,0,0,0,0,0,0,0,0,0,0,0,0,0,0,0,0,0,0,0,0,0,0,0,0,0,0,0],"sum_hessian":[3.8376254E2,1.8015038E2,2.0361217E2,8.9524254E1,9.0626114E1,1.6483572E2,3.8776447E1,5.5166496E1,3.5459618E1,1.3012492E2,3.47108E1,4.6468883E0,3.412956E1,2.028259E1,3.4883907E1,1.0539386E2,2.4731062E1,1.9857525E1,1.4853274E1,2.0695642E1,1.3433916E1,6.5462375E0,1.3736352E1,2.1247631E1,3.4834313E0,1.0200839E1,9.656687E0,4.4502273E0,1.0403048E1,1.0493136E1,1.0202506E1,9.126721E0,4.307195E0,1.4345495E1,6.902135E0,3.3791118E0,6.2775745E0,4.8041067E0,5.5989404E0,3.0459309E0,7.1565747E0,5.236756E0,3.8899658E0],"tree_param":{"num_deleted":"0","num_feature":"32","num_nodes":"43","size_leaf_vector":"1"}},{"base_weights":[1.4303571E-3,-7.010117E-2,9.4346476E-1,2.6710162E-1,6.8507396E-2,5.807323E-2,-2.1020968E-2],"categories":[],"categories_nodes":[],"categories_segments":[],"categories_sizes":[],"default_left":[0,0,0,0,0,0,0],"id":67,"left_children":[1,-1,3,5,-1,-1,-1],"loss_changes":[3.454192E2,0E0,4.228668E0,3.665789E0,0E0,0E0,0E0],"parents":[2147483647,0,0,2,2,3,3],"right_children":[2,-1,4,6,-1,-1,-1],"split_conditions":[1.7546539E-1,-7.010117E-2,7.861784E-1,-3.0994747E0,6.8507396E-2,5.807323E-2,-2.1020968E-2],"split_indices":[0,0,0,4,0,0,0],"split_type":[0,0,0,0,0,0,0],"sum_hessian":[3.6362213E2,1.7609306E2,1.8752908E2,9.70474E0,1.7782434E2,4.641282E0,5.0634575E0],"tree_param":{"num_deleted":"0","num_feature":"32","num_nodes":"7","size_leaf_vector":"1"}},{"base_weights":[-9.155132E-3,-7.004376E-2,9.2473793E-1,3.610617E-1,6.82696E-2,6.308533E-2,-3.6755067E-1,1.3875637E-2,-5.5298526E-2],"categories":[],"categories_nodes":[],"categories_segments":[],"categories_sizes":[],"default_left":[0,0,0,0,0,0,0,0,0],"id":68,"left_children":[1,-1,3,5,-1,-1,7,-1,-1],"loss_changes":[3.1784265E2,0E0,4.6840057E0,6.6809864E0,0E0,0E0,1.9679759E0,0E0,0E0],"parents":[2147483647,0,0,2,2,3,3,6,6],"right_children":[2,-1,4,6,-1,-1,8,-1,-1],"split_conditions":[1.7546539E-1,-7.004376E-2,9.9778265E-1,-3.0994747E0,6.82696E-2,6.308533E-2,-8.6794263E-1,1.3875637E-2,-5.5298526E-2],"split_indices":[0,0,0,4,0,0,1,0,0],"split_type":[0,0,0,0,0,0,0,0,0],"sum_hessian":[3.4127036E2,1.6549776E2,1.7577258E2,1.51339E1,1.6063869E2,8.554854E0,6.5790453E0,3.0392354E0,3.53981E0],"tree_param":{"num_deleted":"0","num_feature":"32","num_nodes":"9","size_leaf_vector":"1"}},{"base_weights":[-7.823574E-3,-6.9978364E-2,9.187048E-1,9.80281E-2,9.556597E-1,3.6312338E-2,-2.6543656E-2,6.529682E-1,6.940007E-2,5.643147E-2,9.348121E-3],"categories":[],"categories_nodes":[],"categories_segments":[],"categories_sizes":[],"default_left":[0,0,0,0,0,0,0,0,0,0,0],"id":69,"left_children":[1,-1,3,5,7,-1,-1,9,-1,-1,-1],"loss_changes":[2.943437E2,0E0,4.9287567E0,1.8531322E0,1.0671539E0,0E0,0E0,1.45712E0,0E0,0E0,0E0],"parents":[2147483647,0,0,2,2,3,3,4,4,7,7],"right_children":[2,-1,4,6,8,-1,-1,10,-1,-1,-1],"split_conditions":[1.7546539E-1,-6.9978364E-2,6.9983864E-1,-8.9027184E-1,1.4630504E0,3.6312338E-2,-2.6543656E-2,2.5542623E-1,6.940007E-2,5.643147E-2,9.348121E-3],"split_indices":[0,0,0,1,0,0,0,1,0,0,0],"split_type":[0,0,0,0,0,0,0,0,0,0,0],"sum_hessian":[3.1828992E2,1.5368648E2,1.6460344E2,7.2500706E0,1.5735336E2,3.806899E0,3.4431717E0,1.8664593E1,1.3868877E2,1.3987246E1,4.6773477E0],"tree_param":{"num_deleted":"0","num_feature":"32","num_nodes":"11","size_leaf_vector":"1"}},{"base_weights":[1.4924606E-3,-6.991585E-2,9.313198E-1,4.1953856E-1,6.840424E-2,6.255921E-2,-2.025664E-2],"categories":[],"categories_nodes":[],"categories_segments":[],"categories_sizes":[],"default_left":[0,0,0,0,0,0,0],"id":70,"left_children":[1,-1,3,5,-1,-1,-1],"loss_changes":[2.785241E2,0E0,3.2343445E0,5.1398983E0,0E0,0E0,0E0],"parents":[2147483647,0,0,2,2,3,3],"right_children":[2,-1,4,6,-1,-1,-1],"split_conditions":[1.7546539E-1,-6.991585E-2,9.9778265E-1,-3.0994747E0,6.840424E-2,6.255921E-2,-2.025664E-2],"split_indices":[0,0,0,4,0,0,0],"split_type":[0,0,0,0,0,0,0],"sum_hessian":[2.9745682E2,1.4326303E2,1.541938E2,1.35213785E1,1.4067242E2,7.9459977E0,5.575381E0],"tree_param":{"num_deleted":"0","num_feature":"32","num_nodes":"7","size_leaf_vector":"1"}},{"base_weights":[-9.224808E-3,-6.985571E-2,9.049229E-1,7.132245E-2,9.6124667E-1,5.605669E-2,-3.445136E-2,6.8642867E-1,6.920409E-2,5.8571734E-2,1.160507E-2],"categories":[],"categories_nodes":[],"categories_segments":[],"categories_sizes":[],"default_left":[0,0,0,0,0,0,0,0,0,0,0],"id":71,"left_children":[1,-1,3,5,7,-1,-1,9,-1,-1,-1],"loss_changes":[2.5416295E2,0E0,6.7919235E0,4.639524E0,3.5076904E-1,0E0,0E0,1.0872931E0,0E0,0E0,0E0],"parents":[2147483647,0,0,2,2,3,3,4,4,7,7],"right_children":[2,-1,4,6,8,-1,-1,10,-1,-1,-1],"split_conditions":[1.7546539E-1,-6.985571E-2,7.861784E-1,-3.0994747E0,1.4630504E0,5.605669E-2,-3.445136E-2,2.5542623E-1,6.920409E-2,5.8571734E-2,1.160507E-2],"split_indices":[0,0,0,4,0,0,0,1,0,0,0],"split_type":[0,0,0,0,0,0,0,0,0,0,0],"sum_hessian":[2.7920728E2,1.3408904E2,1.4511823E2,9.328047E0,1.3579018E2,3.8816667E0,5.44638E0,1.4666322E1,1.21123856E2,1.09095745E1,3.7567468E0],"tree_param":{"num_deleted":"0","num_feature":"32","num_nodes":"11","size_leaf_vector":"1"}},{"base_weights":[-4.7278763E-3,-6.9795676E-2,9.086054E-1,3.0047864E-1,9.724251E-1,6.616973E-1,-3.0648476E-2,6.2839395E-1,6.9713525E-2,2.4625883E-2,6.1251443E-2,5.1903807E-2,1.7974788E-2],"categories":[],"categories_nodes":[],"categories_segments":[],"categories_sizes":[],"default_left":[0,0,0,0,0,0,0,0,0,0,0,0,0],"id":72,"left_children":[1,-1,3,5,7,9,-1,11,-1,-1,-1,-1,-1],"loss_changes":[2.3895726E2,0E0,5.0362015E0,4.1532636E0,3.7436676E-1,3.615756E-1,0E0,2.5592756E-1,0E0,0E0,0E0,0E0,0E0],"parents":[2147483647,0,0,2,2,3,3,4,4,5,5,7,7],"right_children":[2,-1,4,6,8,10,-1,12,-1,-1,-1,-1,-1],"split_conditions":[1.7546539E-1,-6.9795676E-2,9.9778265E-1,1.1221396E-1,1.4630504E0,4.0259836E-3,-3.0648476E-2,1.01783834E-1,6.9713525E-2,2.4625883E-2,6.1251443E-2,5.1903807E-2,1.7974788E-2],"split_indices":[0,0,0,1,0,24,0,1,0,0,0,0,0],"split_type":[0,0,0,0,0,0,0,0,0,0,0,0,0],"sum_hessian":[2.6164856E2,1.2535567E2,1.362929E2,1.3486887E1,1.2280601E2,9.125853E0,4.361034E0,9.620493E0,1.1318552E2,4.8007865E0,4.3250666E0,6.612771E0,3.0077221E0],"tree_param":{"num_deleted":"0","num_feature":"32","num_nodes":"13","size_leaf_vector":"1"}},{"base_weights":[3.5794233E-3,-6.972887E-2,9.1305506E-1,2.374613E-1,9.627498E-1,5.519405E-2,-1.3112478E-2,6.847229E-2,3.9568428E-2],"categories":[],"categories_nodes":[],"categories_segments":[],"categories_sizes":[],"default_left":[0,0,0,0,0,0,0,0,0],"id":73,"left_children":[1,-1,3,5,7,-1,-1,-1,-1],"loss_changes":[2.2388504E2,0E0,4.100273E0,2.5262415E0,1.8147278E-1,0E0,0E0,0E0,0E0],"parents":[2147483647,0,0,2,2,3,3,4,4],"right_children":[2,-1,4,6,8,-1,-1,-1,-1],"split_conditions":[1.7546539E-1,-6.972887E-2,7.861784E-1,-3.0994747E0,9.9699205E-1,5.519405E-2,-1.3112478E-2,6.847229E-2,3.9568428E-2],"split_indices":[0,0,0,4,8,0,0,0,0],"split_type":[0,0,0,0,0,0,0,0,0],"sum_hessian":[2.4424141E2,1.1630373E2,1.27937675E2,9.16185E0,1.18775826E2,3.615558E0,5.546292E0,1.1293223E2,5.8436017E0],"tree_param":{"num_deleted":"0","num_feature":"32","num_nodes":"9","size_leaf_vector":"1"}},{"base_weights":[1.0196561E-2,-6.966922E-2,9.2149645E-1,4.2131364E-1,6.835921E-2,5.5134065E-2,-1.9677144E-2],"categories":[],"categories_nodes":[],"categories_segments":[],"categories_sizes":[],"default_left":[0,0,0,0,0,0,0],"id":74,"left_children":[1,-1,3,5,-1,-1,-1],"loss_changes":[2.1244868E2,0E0,2.938179E0,3.777305E0,0E0,0E0,0E0],"parents":[2147483647,0,0,2,2,3,3],"right_children":[2,-1,4,6,-1,-1,-1],"split_conditions":[1.7546539E-1,-6.966922E-2,9.9778265E-1,1.1221396E-1,6.835921E-2,5.5134065E-2,-1.9677144E-2],"split_indices":[0,0,0,1,0,0,0],"split_type":[0,0,0,0,0,0,0],"sum_hessian":[2.2985764E2,1.0923854E2,1.20619095E2,1.2819735E1,1.0779936E2,8.34594E0,4.473795E0],"tree_param":{"num_deleted":"0","num_feature":"32","num_nodes":"7","size_leaf_vector":"1"}},{"base_weights":[1.3583681E-3,-6.960126E-2,8.9994425E-1,2.702204E-1,6.8200916E-2,6.053849E-2,-3.570782E-1,4.3910746E-3,-4.702842E-2],"categories":[],"categories_nodes":[],"categories_segments":[],"categories_sizes":[],"default_left":[0,0,0,0,0,0,0,0,0],"id":75,"left_children":[1,-1,3,5,-1,-1,7,-1,-1],"loss_changes":[1.9372714E2,0E0,5.0657578E0,5.3081694E0,0E0,0E0,9.9750173E-1,0E0,0E0],"parents":[2147483647,0,0,2,2,3,3,6,6],"right_children":[2,-1,4,6,-1,-1,8,-1,-1],"split_conditions":[1.7546539E-1,-6.960126E-2,9.9778265E-1,-3.0994747E0,6.8200916E-2,6.053849E-2,-3.0998291E-2,4.3910746E-3,-4.702842E-2],"split_indices":[0,0,0,4,0,0,1,0,0],"split_type":[0,0,0,0,0,0,0,0,0],"sum_hessian":[2.1453026E2,1.0171748E2,1.1281277E2,1.2403053E1,1.0040971E2,6.173006E0,6.230047E0,3.0126345E0,3.2174125E0],"tree_param":{"num_deleted":"0","num_feature":"32","num_nodes":"9","size_leaf_vector":"1"}},{"base_weights":[8.5526705E-3,-6.9531575E-2,9.161087E-1,6.940151E-2,5.70588E-1,-5.2426513E-2,6.0720228E-2,-3.761431E-2,2.6783125E-2],"categories":[],"categories_nodes":[],"categories_segments":[],"categories_sizes":[],"default_left":[0,0,0,0,0,0,0,0,0],"id":76,"left_children":[1,-1,3,-1,5,7,-1,-1,-1],"loss_changes":[1.8285162E2,0E0,2.1809921E0,0E0,3.9743543E0,1.8508142E0,0E0,0E0,0E0],"parents":[2147483647,0,0,2,2,4,4,5,5],"right_children":[2,-1,4,-1,6,8,-1,-1,-1],"split_conditions":[1.7546539E-1,-6.9531575E-2,3.1992736E-1,6.940151E-2,1.4630504E0,2.8565028E-3,6.0720228E-2,-3.761431E-2,2.6783125E-2],"split_indices":[0,0,4,0,0,30,0,0,0],"split_type":[0,0,0,0,0,0,0,0,0],"sum_hessian":[1.9910191E2,9.4589294E1,1.0451262E2,8.4268326E1,2.0244299E1,6.7986684E0,1.344563E1,3.1038253E0,3.6948428E0],"tree_param":{"num_deleted":"0","num_feature":"32","num_nodes":"9","size_leaf_vector":"1"}},{"base_weights":[-5.833784E-3,-6.946298E-2,8.7706137E-1,6.932897E-2,4.095585E-1,-3.6991385E-1,6.0195282E-2,8.925619E-3,-5.1369376E-2],"categories":[],"categories_nodes":[],"categories_segments":[],"categories_sizes":[],"default_left":[0,0,0,0,0,0,0,0,0],"id":77,"left_children":[1,-1,3,-1,5,7,-1,-1,-1],"loss_changes":[1.6484427E2,0E0,4.8872986E0,0E0,7.759222E0,1.6253424E0,0E0,0E0,0E0],"parents":[2147483647,0,0,2,2,4,4,5,5],"right_children":[2,-1,4,-1,6,8,-1,-1,-1],"split_conditions":[1.7546539E-1,-6.946298E-2,3.1992736E-1,6.932897E-2,1.4630504E0,6.215557E-1,6.0195282E-2,8.925619E-3,-5.1369376E-2],"split_indices":[0,0,4,0,0,0,0,0,0],"split_type":[0,0,0,0,0,0,0,0,0],"sum_hessian":[1.8726562E2,8.8385254E1,9.888037E1,7.868387E1,2.01965E1,7.461453E0,1.2735048E1,3.4270394E0,4.0344133E0],"tree_param":{"num_deleted":"0","num_feature":"32","num_nodes":"9","size_leaf_vector":"1"}},{"base_weights":[-7.6128347E-3,-6.939254E-2,8.6405975E-1,3.6590245E-1,6.838445E-2,-6.808985E-2,6.727216E-2,-1.0228985E-1,4.8111565E-2],"categories":[],"categories_nodes":[],"categories_segments":[],"categories_sizes":[],"default_left":[0,0,0,0,0,0,0,0,0],"id":78,"left_children":[1,-1,3,5,-1,7,-1,-1,-1],"loss_changes":[1.5267555E2,0E0,4.9503403E0,4.9822626E0,0E0,1.3572878E1,0E0,0E0,0E0],"parents":[2147483647,0,0,2,2,3,3,5,5],"right_children":[2,-1,4,6,-1,8,-1,-1,-1],"split_conditions":[1.7546539E-1,-6.939254E-2,1.4630504E0,4.0259836E-3,6.838445E-2,3.5535826E-3,6.727216E-2,-1.0228985E-1,4.8111565E-2],"split_indices":[0,0,0,24,0,23,0,0,0],"split_type":[0,0,0,0,0,0,0,0,0],"sum_hessian":[1.7605408E2,8.2647064E1,9.340701E1,1.8036724E1,7.5370285E1,1.0942551E1,7.094173E0,3.518628E0,7.4239225E0],"tree_param":{"num_deleted":"0","num_feature":"32","num_nodes":"9","size_leaf_vector":"1"}},{"base_weights":[6.5925694E-3,1.2343099E-1,-7.381917E-2,-9.864182E-2,5.968168E-1,-5.535956E-1,5.122528E-1,5.3464465E-2,4.3548185E-1,-7.372563E-2,2.6361513E-1,2.975064E-1,5.1234573E-2,5.611036E-2,3.3872363E-1,2.1359287E-3,3.794838E-2,3.5206667E-1,2.3662E-3,4.087518E-1,3.314731E-3,-6.561377E-3,8.83832E-3,1.45530775E-2,3.2402493E-2,3.5184152E-2,1.645711E-2],"categories":[],"categories_nodes":[],"categories_segments":[],"categories_sizes":[],"default_left":[0,0,0,0,0,0,0,0,0,0,0,0,0,0,0,0,0,0,0,0,0,0,0,0,0,0,0],"id":79,"left_children":[1,3,-1,5,7,9,11,-1,13,-1,15,17,-1,-1,19,21,-1,23,-1,25,-1,-1,-1,-1,-1,-1,-1],"loss_changes":[2.0687796E1,1.5855024E1,0E0,2.8948256E1,9.63644E-1,2.4609854E1,1.8834858E0,0E0,6.778159E-1,0E0,1.7036731E0,3.3640766E-1,0E0,0E0,4.4849825E-1,1.6746578E-1,0E0,2.2254968E-1,0E0,1.8106079E-1,0E0,0E0,0E0,0E0,0E0,0E0,0E0],"parents":[2147483647,0,0,1,1,3,3,4,4,5,5,6,6,8,8,10,10,11,11,14,14,15,15,17,17,19,19],"right_children":[2,4,-1,6,8,10,12,-1,14,-1,16,18,-1,-1,20,22,-1,24,-1,26,-1,-1,-1,-1,-1,-1,-1],"split_conditions":[1E0,4.0259836E-3,-7.381917E-2,3.5535826E-3,-1.0334841E0,3.4901057E-3,-5.2510446E-1,5.3464465E-2,9.961959E-1,-7.372563E-2,-5.2510446E-1,9.965838E-1,5.1234573E-2,5.611036E-2,9.965838E-1,7.1614325E-1,3.794838E-2,1.1428338E-2,2.3662E-3,9.9558985E-1,3.314731E-3,-6.561377E-3,8.83832E-3,1.45530775E-2,3.2402493E-2,3.5184152E-2,1.645711E-2],"split_indices":[29,24,0,23,1,22,3,0,24,0,3,28,0,0,28,1,0,2,0,30,0,0,0,0,0,0,0],"split_type":[0,0,0,0,0,0,0,0,0,0,0,0,0,0,0,0,0,0,0,0,0,0,0,0,0,0,0],"sum_hessian":[1.6480962E2,1.4925908E2,1.5550527E1,1.0213674E2,4.7122345E1,5.8593777E1,4.354296E1,2.1322319E1,2.5800026E1,3.6183216E1,2.2410563E1,2.3208723E1,2.033424E1,3.8706608E0,2.1929365E1,1.2078299E1,1.0332264E1,1.8952389E1,4.2563343E0,1.7355314E1,4.5740504E0,6.9529552E0,5.125343E0,9.487159E0,9.465229E0,